1_mean,2_mean,3_mean,4_mean,5_mean,6_mean,7_mean,8_mean,1_std,2_std,3_std,4_std,5_std,6_std,7_std,8_std
0.012888,-0.002775,0.009617,0.001512,0.000183,-0.009669,-0.028667,-0.013627,0.506263,0.626576,0.617947,0.633422,0.651095,0.664823,0.700282,0.658584
-0.006612,-0.009662,0.000981,-0.018503,-0.002586,-0.020211,-0.034750,-0.010874,0.450796,0.586638,0.571523,0.598557,0.614547,0.632002,0.691960,0.652237
-0.014074,-0.017048,0.001469,-0.025347,-0.003750,-0.025259,-0.037612,-0.009989,0.429246,0.554229,0.547384,0.575950,0.586474,0.609974,0.686839,0.650496
-0.012871,-0.023570,-0.005296,-0.040471,-0.005599,-0.029642,-0.042798,-0.006698,0.441686,0.539887,0.532467,0.572192,0.567255,0.592879,0.683691,0.646835
-0.017443,-0.025416,-0.004829,-0.046332,-0.008636,-0.033507,-0.047750,-0.006124,0.458056,0.533438,0.526106,0.571385,0.554396,0.578747,0.682546,0.642709
-0.007493,-0.029779,-0.010642,-0.050263,-0.010181,-0.036793,-0.049779,-0.004064,0.464906,0.529716,0.524160,0.575314,0.545569,0.568456,0.682131,0.640177
-0.016183,-0.036716,-0.011934,-0.056705,-0.012031,-0.041391,-0.053409,-0.004014,0.474046,0.527910,0.522382,0.575263,0.536710,0.560396,0.682759,0.635003
-0.017478,-0.030741,-0.010761,-0.061622,-0.016315,-0.042639,-0.057697,-0.002884,0.470102,0.527930,0.524313,0.571524,0.533445,0.553848,0.685765,0.629775
-0.011112,-0.038426,-0.016234,-0.064468,-0.018925,-0.046725,-0.060723,-0.000862,0.467142,0.530031,0.524060,0.574462,0.532743,0.549975,0.686851,0.625114
-0.013938,-0.039941,-0.015459,-0.064765,-0.021291,-0.051287,-0.061845,0.000754,0.477222,0.529422,0.523167,0.566156,0.532568,0.548251,0.684764,0.622503
-0.016089,-0.037626,-0.018151,-0.067043,-0.022844,-0.055898,-0.062078,0.000314,0.473061,0.529916,0.522797,0.565519,0.533322,0.547634,0.683943,0.622064
-0.011230,-0.041237,-0.016391,-0.067273,-0.024978,-0.058075,-0.065894,0.000636,0.477495,0.529357,0.521673,0.565532,0.533796,0.546293,0.685113,0.620291
-0.017825,-0.038486,-0.016645,-0.073060,-0.025209,-0.059520,-0.067939,0.000156,0.477515,0.531331,0.522458,0.572159,0.534845,0.545026,0.684338,0.616668
-0.009903,-0.038084,-0.021997,-0.078381,-0.028176,-0.060722,-0.068084,0.001607,0.480216,0.534157,0.522274,0.579383,0.538090,0.545661,0.685011,0.615242
-0.011806,-0.043811,-0.021500,-0.077325,-0.029224,-0.064269,-0.070370,0.001744,0.483429,0.536825,0.522276,0.581320,0.540789,0.547934,0.684633,0.613117
-0.014535,-0.042611,-0.023610,-0.083232,-0.030756,-0.064519,-0.071783,0.001153,0.482251,0.541266,0.520643,0.589163,0.542496,0.547469,0.687905,0.612815
-0.012747,-0.038487,-0.020364,-0.086032,-0.033134,-0.067130,-0.073069,0.001239,0.481360,0.543643,0.519231,0.592281,0.543582,0.547467,0.684601,0.611269
-0.015498,-0.042999,-0.024532,-0.088155,-0.030888,-0.066405,-0.073426,0.002840,0.483425,0.545316,0.520163,0.594241,0.541921,0.548494,0.685961,0.609332
-0.012575,-0.047668,-0.023405,-0.085848,-0.030799,-0.068561,-0.072890,0.002180,0.489025,0.546575,0.519817,0.594008,0.541931,0.549928,0.685731,0.608622
-0.007851,-0.046202,-0.025924,-0.090119,-0.030806,-0.066290,-0.076644,0.003379,0.485445,0.546322,0.520707,0.596550,0.541427,0.550418,0.687647,0.608036
-0.017889,-0.039975,-0.023176,-0.089958,-0.033315,-0.071352,-0.077425,0.002971,0.482870,0.546020,0.517311,0.592553,0.540764,0.554715,0.685742,0.606455
-0.012754,-0.040830,-0.026014,-0.087142,-0.032325,-0.070554,-0.077654,0.002497,0.488507,0.548931,0.517464,0.591344,0.540456,0.555302,0.685406,0.606079
-0.013978,-0.042532,-0.025867,-0.089889,-0.030773,-0.072783,-0.078574,0.003346,0.494348,0.548811,0.518827,0.593444,0.540700,0.557378,0.685213,0.605350
-0.013106,-0.042640,-0.027856,-0.089792,-0.031892,-0.074544,-0.080138,0.003079,0.487433,0.547424,0.518155,0.593519,0.539393,0.558585,0.687518,0.604981
-0.012147,-0.042173,-0.025772,-0.092082,-0.031945,-0.074686,-0.079556,0.003824,0.489677,0.550967,0.517182,0.588929,0.539376,0.559341,0.686286,0.602778
-0.017505,-0.043029,-0.023799,-0.085667,-0.032737,-0.074224,-0.080348,0.004153,0.490904,0.550355,0.517084,0.586423,0.537261,0.561470,0.686223,0.602292
-0.020612,-0.044201,-0.025647,-0.088786,-0.029596,-0.072842,-0.081755,0.004808,0.483792,0.551576,0.518142,0.588422,0.537458,0.560969,0.688505,0.602170
-0.014521,-0.044932,-0.022951,-0.087635,-0.031996,-0.073898,-0.083679,0.004624,0.490786,0.549323,0.518891,0.587404,0.539755,0.562383,0.687358,0.601133
-0.012663,-0.044822,-0.026199,-0.086608,-0.030741,-0.070551,-0.083548,0.003757,0.487420,0.554000,0.518273,0.583388,0.538856,0.560584,0.684223,0.599931
-0.011105,-0.044569,-0.026706,-0.084067,-0.031118,-0.071081,-0.084518,0.005029,0.484466,0.553962,0.517491,0.582617,0.538059,0.561312,0.686761,0.599307
-0.017190,-0.045635,-0.024390,-0.086922,-0.031300,-0.071305,-0.084772,0.003861,0.490264,0.552742,0.518243,0.579445,0.537870,0.562791,0.687070,0.601616
-0.010779,-0.046448,-0.023317,-0.083117,-0.032637,-0.070513,-0.086193,0.006095,0.491536,0.553314,0.518331,0.575313,0.538222,0.565103,0.687401,0.599213
-0.021371,-0.039280,-0.022755,-0.084641,-0.031462,-0.073194,-0.085844,0.005288,0.493135,0.553198,0.518996,0.574149,0.540186,0.564627,0.685445,0.598657
-0.007629,-0.042241,-0.025071,-0.085996,-0.032353,-0.074361,-0.086707,0.005943,0.488378,0.557324,0.517493,0.578563,0.539793,0.564346,0.688579,0.598069
-0.017664,-0.042333,-0.024301,-0.089903,-0.030982,-0.071741,-0.085230,0.005541,0.492471,0.556412,0.518304,0.580900,0.539899,0.564362,0.686781,0.599632
-0.009513,-0.043324,-0.026252,-0.083922,-0.034911,-0.072301,-0.086681,0.006489,0.494289,0.554548,0.517289,0.576044,0.540925,0.564845,0.685973,0.596869
-0.013317,-0.051895,-0.026100,-0.087380,-0.031528,-0.072973,-0.086937,0.005467,0.492856,0.555595,0.519022,0.579211,0.543351,0.563218,0.686706,0.597211
-0.012993,-0.045956,-0.025268,-0.091313,-0.033634,-0.070739,-0.086060,0.005666,0.492816,0.555167,0.516654,0.579910,0.543071,0.562757,0.685645,0.597812
-0.013340,-0.046358,-0.024173,-0.088346,-0.033579,-0.071355,-0.088150,0.005779,0.487493,0.556913,0.518062,0.575223,0.543323,0.563096,0.685810,0.597705
-0.013802,-0.038092,-0.024514,-0.086257,-0.031398,-0.070258,-0.087907,0.007209,0.490281,0.553337,0.518699,0.570822,0.544546,0.564388,0.685901,0.595828
-0.012961,-0.043052,-0.026325,-0.088584,-0.033103,-0.073120,-0.089017,0.006361,0.488911,0.551811,0.519517,0.574389,0.544958,0.564570,0.689249,0.596278
-0.013697,-0.042111,-0.025083,-0.089712,-0.033847,-0.071717,-0.090246,0.007617,0.487075,0.553848,0.518175,0.577204,0.545662,0.565862,0.687348,0.596103
-0.018463,-0.038654,-0.022878,-0.085217,-0.034548,-0.073904,-0.090452,0.008055,0.487407,0.553845,0.519612,0.577499,0.545466,0.567738,0.688926,0.593760
-0.022593,-0.031979,-0.022925,-0.087920,-0.034353,-0.071681,-0.091412,0.007975,0.488493,0.552427,0.517763,0.572059,0.545964,0.566360,0.687485,0.595157
-0.017575,-0.042570,-0.021929,-0.088052,-0.034794,-0.071863,-0.090784,0.007039,0.494802,0.556087,0.518546,0.575237,0.547322,0.566606,0.688383,0.593962
-0.019431,-0.040098,-0.024480,-0.089162,-0.035655,-0.071216,-0.091728,0.006796,0.502656,0.558252,0.518468,0.573539,0.547539,0.565476,0.687690,0.593864
-0.013493,-0.039989,-0.026018,-0.087962,-0.036489,-0.071869,-0.090751,0.007452,0.487660,0.555844,0.519002,0.572514,0.549129,0.565616,0.688847,0.593789
-0.017446,-0.044631,-0.023622,-0.087848,-0.036435,-0.071632,-0.093497,0.007586,0.486639,0.558786,0.517722,0.571406,0.549001,0.565019,0.688902,0.592773
-0.023376,-0.045265,-0.026209,-0.089017,-0.039157,-0.070370,-0.091665,0.008109,0.493372,0.558716,0.517858,0.571028,0.552145,0.562664,0.689805,0.592901
-0.014162,-0.037451,-0.018790,-0.086124,-0.036200,-0.071204,-0.092701,0.008576,0.490275,0.553206,0.515177,0.569229,0.551091,0.565260,0.688051,0.593760
-0.018988,-0.044754,-0.025398,-0.087516,-0.035757,-0.072106,-0.093331,0.008085,0.493297,0.555179,0.518094,0.572959,0.550953,0.564952,0.689537,0.592575
-0.016988,-0.042764,-0.023362,-0.089709,-0.040670,-0.071296,-0.093300,0.008700,0.494179,0.558299,0.517702,0.573913,0.554888,0.564324,0.688303,0.591023
-0.022374,-0.042794,-0.020434,-0.089702,-0.036454,-0.072554,-0.092697,0.008030,0.489654,0.556589,0.517208,0.572622,0.554291,0.564247,0.686833,0.592441
-0.021915,-0.037821,-0.025347,-0.088387,-0.038368,-0.073194,-0.094880,0.007592,0.491871,0.554903,0.519163,0.577671,0.555527,0.566620,0.689244,0.593457
-0.016742,-0.044764,-0.022089,-0.089778,-0.038192,-0.071064,-0.095105,0.008319,0.493489,0.553700,0.516304,0.575135,0.556006,0.564507,0.687261,0.591654
-0.018448,-0.042121,-0.026697,-0.086065,-0.039620,-0.070415,-0.095355,0.007427,0.493248,0.556903,0.518632,0.573619,0.555436,0.566304,0.688257,0.593482
-0.011908,-0.041083,-0.023593,-0.091179,-0.036232,-0.068612,-0.097118,0.008636,0.492871,0.554569,0.517381,0.576387,0.555444,0.564729,0.688911,0.592069
-0.010517,-0.038831,-0.024445,-0.091117,-0.040646,-0.071290,-0.094823,0.007791,0.488915,0.556398,0.517217,0.578412,0.558481,0.565199,0.688868,0.593068
-0.025168,-0.043083,-0.023669,-0.090827,-0.040219,-0.070252,-0.095574,0.007313,0.493844,0.555126,0.516145,0.575853,0.561387,0.565591,0.688658,0.594002
-0.021019,-0.041053,-0.024494,-0.093317,-0.041398,-0.069828,-0.095389,0.007552,0.494152,0.553580,0.518709,0.575237,0.561107,0.566462,0.688599,0.594206
-0.017875,-0.040029,-0.024520,-0.091584,-0.041049,-0.069358,-0.096982,0.008642,0.492613,0.553123,0.518764,0.575909,0.561944,0.565554,0.689799,0.592307
-0.013388,-0.045878,-0.024005,-0.090072,-0.040995,-0.070147,-0.095467,0.009025,0.501636,0.554459,0.518721,0.577095,0.560438,0.565444,0.687626,0.591464
-0.016790,-0.038416,-0.023595,-0.090336,-0.038686,-0.068412,-0.096930,0.009604,0.489722,0.555696,0.518619,0.577493,0.558529,0.565001,0.689199,0.589692
-0.013608,-0.038425,-0.024253,-0.090366,-0.040122,-0.070088,-0.096692,0.009223,0.495895,0.555220,0.518438,0.575677,0.558780,0.565916,0.688163,0.590956
-0.015612,-0.043020,-0.023518,-0.090031,-0.039471,-0.069285,-0.097169,0.009573,0.499079,0.558454,0.518291,0.575908,0.557581,0.566665,0.688719,0.589908
-0.021862,-0.038611,-0.022852,-0.092863,-0.043342,-0.067482,-0.097285,0.009095,0.495691,0.555505,0.517624,0.575305,0.563045,0.564653,0.688439,0.591081
-0.007154,-0.046108,-0.026454,-0.088214,-0.038046,-0.068048,-0.100057,0.009854,0.490316,0.558089,0.517576,0.574251,0.560467,0.565046,0.690353,0.590694
-0.016352,-0.043843,-0.027608,-0.090236,-0.040565,-0.067771,-0.100524,0.009900,0.492678,0.556172,0.517763,0.573220,0.561180,0.565159,0.691151,0.590684
-0.004918,-0.043686,-0.026333,-0.096593,-0.039795,-0.066658,-0.098695,0.009926,0.495077,0.555498,0.515449,0.581439,0.560952,0.564974,0.689220,0.590685
-0.018607,-0.038808,-0.024335,-0.096564,-0.040257,-0.064373,-0.100723,0.009420,0.487759,0.558046,0.516250,0.579207,0.564063,0.563875,0.689021,0.591175
-0.016756,-0.043793,-0.023240,-0.093172,-0.040546,-0.069389,-0.099233,0.009957,0.490575,0.557369,0.516245,0.573962,0.563507,0.567711,0.687005,0.590243
-0.011967,-0.037623,-0.023701,-0.089733,-0.042067,-0.068701,-0.100687,0.009559,0.493059,0.555964,0.518404,0.573033,0.567706,0.568334,0.687746,0.590718
-0.017102,-0.041125,-0.023212,-0.091329,-0.040447,-0.068637,-0.101358,0.011333,0.504121,0.555473,0.519432,0.579295,0.566052,0.567245,0.688412,0.588078
-0.011270,-0.044075,-0.026769,-0.092433,-0.041031,-0.067682,-0.100684,0.010375,0.497419,0.554381,0.517955,0.577344,0.564918,0.565027,0.688410,0.589219
-0.005302,-0.040367,-0.026799,-0.092827,-0.044502,-0.069086,-0.100040,0.011357,0.490849,0.554942,0.519743,0.579043,0.569046,0.565925,0.688264,0.588507
-0.020739,-0.046165,-0.025220,-0.095836,-0.044089,-0.068265,-0.101173,0.009597,0.492449,0.560160,0.518731,0.583494,0.568782,0.565387,0.687578,0.589969
-0.005652,-0.039857,-0.026242,-0.097837,-0.042845,-0.068066,-0.101804,0.011653,0.488763,0.554222,0.518153,0.585467,0.568407,0.566508,0.689075,0.588951
-0.013896,-0.036711,-0.022948,-0.096575,-0.046056,-0.066585,-0.101466,0.009886,0.490995,0.557379,0.516010,0.583831,0.570686,0.566187,0.689188,0.589286
-0.017857,-0.041433,-0.026235,-0.096889,-0.044508,-0.067328,-0.102450,0.009045,0.497166,0.555235,0.516478,0.584759,0.569455,0.567060,0.688272,0.589003
-0.018016,-0.038488,-0.026614,-0.096263,-0.041403,-0.067450,-0.102123,0.009612,0.499491,0.553685,0.517101,0.585005,0.564812,0.567779,0.688019,0.589193
-0.011851,-0.042321,-0.023777,-0.098748,-0.045092,-0.069574,-0.102935,0.010293,0.493498,0.554253,0.518633,0.583867,0.568261,0.568618,0.689909,0.587200
-0.013334,-0.041380,-0.025323,-0.099355,-0.046016,-0.068156,-0.101940,0.010174,0.495125,0.556718,0.522113,0.585285,0.573709,0.568853,0.688147,0.586731
-0.013882,-0.041085,-0.025151,-0.097443,-0.045674,-0.070970,-0.101842,0.010815,0.494666,0.554665,0.519930,0.583180,0.570247,0.567769,0.689685,0.586978
-0.014388,-0.044808,-0.025915,-0.099757,-0.043114,-0.070723,-0.103781,0.011168,0.498367,0.554805,0.518701,0.588198,0.569323,0.567563,0.689349,0.587473
-0.015451,-0.048817,-0.027263,-0.095925,-0.043091,-0.067521,-0.104886,0.011463,0.494019,0.560479,0.518565,0.584881,0.567787,0.567551,0.689773,0.587151
-0.017380,-0.041963,-0.026663,-0.096004,-0.044304,-0.068642,-0.104526,0.010236,0.496059,0.557326,0.519089,0.584949,0.571016,0.568667,0.688331,0.588395
-0.010853,-0.044881,-0.027989,-0.100635,-0.046265,-0.067440,-0.104654,0.010495,0.493997,0.559170,0.518139,0.589472,0.570826,0.567745,0.687311,0.587489
-0.014435,-0.042572,-0.026109,-0.100799,-0.045081,-0.068023,-0.104067,0.010482,0.491208,0.556927,0.516950,0.591327,0.571179,0.567330,0.688028,0.589527
-0.009828,-0.047417,-0.026654,-0.100522,-0.043681,-0.065782,-0.105888,0.011846,0.490384,0.554117,0.517484,0.587846,0.571706,0.565458,0.689505,0.587713
-0.028188,-0.040785,-0.024953,-0.094348,-0.041987,-0.065989,-0.103520,0.010842,0.497673,0.554137,0.516522,0.582112,0.572997,0.566418,0.688018,0.587966
-0.013290,-0.047940,-0.025737,-0.096886,-0.044832,-0.068449,-0.104743,0.011252,0.499917,0.560374,0.517421,0.584811,0.572876,0.567617,0.688821,0.586487
-0.018758,-0.037841,-0.025415,-0.098650,-0.044901,-0.069878,-0.104017,0.010498,0.495287,0.554918,0.519264,0.588958,0.571054,0.569195,0.689607,0.588365
-0.015726,-0.041665,-0.024171,-0.099262,-0.048511,-0.068515,-0.105167,0.010684,0.496993,0.554043,0.518833,0.589210,0.575963,0.569392,0.687939,0.586564
-0.017862,-0.045806,-0.027228,-0.098668,-0.044839,-0.067999,-0.105833,0.011578,0.495072,0.556392,0.518551,0.586773,0.573931,0.569302,0.689465,0.587561
-0.013599,-0.042826,-0.026050,-0.099237,-0.045246,-0.067785,-0.106538,0.011087,0.499905,0.556703,0.519392,0.589837,0.573742,0.568458,0.688558,0.586917
-0.015250,-0.040595,-0.025214,-0.099951,-0.044520,-0.067409,-0.107713,0.011427,0.491191,0.555811,0.520033,0.592904,0.571465,0.566732,0.691631,0.586095
-0.012690,-0.044901,-0.023927,-0.102275,-0.046249,-0.068416,-0.107356,0.010140,0.496254,0.555989,0.519414,0.593190,0.572005,0.571081,0.688703,0.587548
-0.013681,-0.039908,-0.025051,-0.103225,-0.045467,-0.067107,-0.108380,0.011625,0.498440,0.555546,0.520012,0.592759,0.571198,0.571227,0.688450,0.586111
-0.009121,-0.042202,-0.025400,-0.103599,-0.046509,-0.070424,-0.107742,0.011621,0.494980,0.555876,0.520638,0.591228,0.575749,0.570654,0.687839,0.587455
-0.012982,-0.039289,-0.026555,-0.100267,-0.046420,-0.068045,-0.108598,0.010248,0.494445,0.555571,0.521666,0.589486,0.573600,0.569772,0.688489,0.589085
-0.014563,-0.042636,-0.026864,-0.102379,-0.043977,-0.068540,-0.108373,0.011790,0.498116,0.553158,0.521857,0.591073,0.570369,0.568971,0.689602,0.588329
-0.018371,-0.039915,-0.028256,-0.102520,-0.044938,-0.064866,-0.109588,0.011054,0.497294,0.555651,0.521361,0.593216,0.571605,0.567340,0.687338,0.587967
-0.016259,-0.045806,-0.026566,-0.103994,-0.048893,-0.065795,-0.107402,0.010089,0.496633,0.556336,0.520532,0.594324,0.573959,0.571407,0.689057,0.587202
-0.019853,-0.044149,-0.025912,-0.098196,-0.048551,-0.069346,-0.109237,0.011188,0.501616,0.555065,0.521650,0.593045,0.577324,0.570755,0.689646,0.586270
-0.007929,-0.041965,-0.026011,-0.101618,-0.048138,-0.068473,-0.108801,0.012591,0.498722,0.554440,0.519619,0.592254,0.577329,0.569289,0.690342,0.586267
-0.011628,-0.033304,-0.028876,-0.102786,-0.045863,-0.066952,-0.109467,0.011567,0.497095,0.550762,0.519595,0.593789,0.573050,0.569305,0.688076,0.585913
-0.017713,-0.040702,-0.025920,-0.101496,-0.044644,-0.067932,-0.109415,0.010874,0.496473,0.554443,0.521405,0.591455,0.576048,0.568034,0.689145,0.586423
-0.017892,-0.040944,-0.024698,-0.104045,-0.047192,-0.068040,-0.109467,0.012812,0.503402,0.554476,0.521076,0.590834,0.577428,0.566493,0.690165,0.585113
-0.016634,-0.038965,-0.025162,-0.103476,-0.045571,-0.066287,-0.110014,0.011401,0.496930,0.552863,0.520958,0.591643,0.574299,0.567202,0.688667,0.585586
-0.009519,-0.043094,-0.026011,-0.104172,-0.047605,-0.067290,-0.109877,0.011600,0.500490,0.553655,0.520326,0.589325,0.576911,0.568071,0.688607,0.585809
-0.017315,-0.046016,-0.026161,-0.102647,-0.047106,-0.067701,-0.109717,0.011406,0.501284,0.552358,0.521296,0.590906,0.579942,0.568506,0.687973,0.587445
-0.013149,-0.039325,-0.026243,-0.101574,-0.047813,-0.068785,-0.111045,0.011642,0.498174,0.554194,0.521154,0.592337,0.579358,0.573043,0.690336,0.587157
-0.017012,-0.043724,-0.026566,-0.103939,-0.046544,-0.066514,-0.110382,0.011535,0.501873,0.551685,0.521469,0.596658,0.577654,0.569196,0.688980,0.586666
-0.018492,-0.047714,-0.027103,-0.104973,-0.049139,-0.068162,-0.110470,0.011257,0.496826,0.553904,0.523279,0.599093,0.580277,0.569615,0.689161,0.587136
-0.013489,-0.038803,-0.028027,-0.105190,-0.049042,-0.069619,-0.109140,0.012013,0.494756,0.550206,0.522617,0.594145,0.577145,0.570527,0.687983,0.586702
-0.016712,-0.041527,-0.026674,-0.100685,-0.046970,-0.068593,-0.111710,0.011484,0.493957,0.552945,0.522418,0.591574,0.575285,0.573581,0.689206,0.586569
-0.017193,-0.037529,-0.029220,-0.102670,-0.046328,-0.068467,-0.111266,0.012558,0.503373,0.554188,0.522204,0.595296,0.574699,0.573284,0.687802,0.585983
-0.014121,-0.044952,-0.029222,-0.101146,-0.046826,-0.067351,-0.112737,0.010911,0.496108,0.552346,0.522340,0.592662,0.571643,0.573957,0.688316,0.584714
-0.016931,-0.046760,-0.029574,-0.106876,-0.046192,-0.067064,-0.112181,0.013015,0.499480,0.552174,0.523090,0.600969,0.572465,0.574110,0.689593,0.585185
-0.020229,-0.042037,-0.025071,-0.108533,-0.045348,-0.069089,-0.111239,0.011730,0.491907,0.555164,0.523450,0.597490,0.569817,0.574718,0.688052,0.585171
-0.015523,-0.041406,-0.025382,-0.106865,-0.046779,-0.067909,-0.113416,0.010365,0.487234,0.555243,0.523221,0.595828,0.573331,0.572172,0.688822,0.585728
-0.013634,-0.040126,-0.026484,-0.106553,-0.049424,-0.067627,-0.112004,0.012462,0.496999,0.556452,0.521254,0.594597,0.574536,0.574055,0.689064,0.584731
-0.017512,-0.041003,-0.027456,-0.100395,-0.048600,-0.068488,-0.112866,0.011053,0.492017,0.555257,0.523173,0.590514,0.574680,0.575236,0.688290,0.586576
-0.012249,-0.036327,-0.026900,-0.101861,-0.047425,-0.070128,-0.111158,0.011918,0.491676,0.552946,0.521619,0.595464,0.574109,0.574786,0.689334,0.585134
-0.015949,-0.043069,-0.026764,-0.103255,-0.046232,-0.067556,-0.113114,0.011289,0.499476,0.552788,0.523516,0.594591,0.572817,0.574918,0.689612,0.584994
-0.009109,-0.042749,-0.027143,-0.110410,-0.046887,-0.067857,-0.113667,0.011780,0.504505,0.555699,0.522888,0.599078,0.575605,0.573604,0.690414,0.584590
-0.014371,-0.033097,-0.025335,-0.106654,-0.046151,-0.069152,-0.113716,0.011283,0.497040,0.551891,0.521143,0.598267,0.574490,0.573344,0.689010,0.584591
-0.010644,-0.042461,-0.026712,-0.104728,-0.047152,-0.071168,-0.113104,0.011579,0.498385,0.555548,0.522516,0.599790,0.574810,0.573604,0.688753,0.584697
-0.012019,-0.044839,-0.026977,-0.104971,-0.050058,-0.068063,-0.114161,0.012716,0.491122,0.552151,0.522805,0.598711,0.575579,0.574703,0.687697,0.584311
-0.018831,-0.039907,-0.025500,-0.107581,-0.049613,-0.068892,-0.114074,0.012792,0.497006,0.552045,0.523589,0.595646,0.577933,0.571541,0.689083,0.584668
-0.012409,-0.039688,-0.028635,-0.109973,-0.050786,-0.067301,-0.113733,0.010873,0.501321,0.555345,0.522673,0.594648,0.578947,0.571008,0.687952,0.586606
-0.020018,-0.044724,-0.025943,-0.104756,-0.047695,-0.070348,-0.113669,0.012182,0.501934,0.557022,0.522041,0.595883,0.575340,0.574313,0.690633,0.586855
-0.014083,-0.042442,-0.027880,-0.107790,-0.048965,-0.069700,-0.113357,0.012278,0.503240,0.555209,0.521296,0.598607,0.572156,0.575762,0.689081,0.587641
-0.017886,-0.043179,-0.025922,-0.107800,-0.052098,-0.069603,-0.113552,0.012065,0.496187,0.555711,0.522627,0.596011,0.578495,0.572763,0.690807,0.586711
-0.016907,-0.038562,-0.026079,-0.106028,-0.049518,-0.069268,-0.113194,0.012005,0.493299,0.554148,0.523015,0.594648,0.575892,0.574108,0.688571,0.587493
-0.013658,-0.045413,-0.028788,-0.109876,-0.045084,-0.068876,-0.115074,0.011626,0.499715,0.554677,0.523908,0.598708,0.573315,0.573513,0.689096,0.586882
-0.017322,-0.041122,-0.030786,-0.105523,-0.047188,-0.068554,-0.114803,0.011846,0.499813,0.556441,0.523410,0.596606,0.574321,0.575362,0.689477,0.586857
-0.016557,-0.033443,-0.028834,-0.105758,-0.045951,-0.067480,-0.115263,0.012223,0.498998,0.554145,0.522515,0.596297,0.574402,0.574307,0.689586,0.585527
-0.013776,-0.041623,-0.028857,-0.106398,-0.047976,-0.068955,-0.114524,0.011817,0.496931,0.551883,0.524312,0.599149,0.572295,0.575530,0.689136,0.586071
-0.009834,-0.043814,-0.025182,-0.105238,-0.051284,-0.069310,-0.114877,0.012761,0.496791,0.552313,0.524250,0.597911,0.574286,0.576792,0.688794,0.585291
-0.010485,-0.040335,-0.027382,-0.106006,-0.047653,-0.068317,-0.115710,0.011820,0.500443,0.552679,0.524284,0.597406,0.574665,0.575099,0.689523,0.586857
-0.013607,-0.041212,-0.026723,-0.106093,-0.046518,-0.068112,-0.115196,0.011905,0.501061,0.553082,0.524857,0.595273,0.573211,0.574629,0.691133,0.587195
-0.016262,-0.042086,-0.027035,-0.103594,-0.048089,-0.067525,-0.114725,0.011820,0.494399,0.551306,0.524517,0.596637,0.576479,0.574466,0.689983,0.585962
-0.016626,-0.041918,-0.027897,-0.105387,-0.045361,-0.069000,-0.116423,0.011940,0.495462,0.553643,0.524173,0.599871,0.572784,0.577516,0.690739,0.585915
-0.020806,-0.038605,-0.024696,-0.104800,-0.047249,-0.068260,-0.116469,0.012298,0.495547,0.554534,0.523419,0.597049,0.575236,0.574679,0.690293,0.586543
-0.015968,-0.042998,-0.026509,-0.104294,-0.046528,-0.066048,-0.116503,0.012177,0.491984,0.552907,0.520873,0.593147,0.570977,0.575020,0.690474,0.585823
-0.012381,-0.040950,-0.025473,-0.101029,-0.048096,-0.068191,-0.115368,0.012397,0.496234,0.554983,0.521695,0.594017,0.570102,0.577127,0.688463,0.586509
-0.011897,-0.041481,-0.028741,-0.106230,-0.049342,-0.066610,-0.118202,0.012888,0.499755,0.558120,0.523062,0.596035,0.573425,0.577245,0.690762,0.584625
-0.011600,-0.041802,-0.024733,-0.105992,-0.047449,-0.070532,-0.117533,0.012513,0.496422,0.557678,0.522523,0.595358,0.569769,0.579719,0.689699,0.585881
-0.012243,-0.039002,-0.027019,-0.103972,-0.048553,-0.067397,-0.117597,0.012452,0.496186,0.554314,0.522429,0.596010,0.570074,0.578332,0.689640,0.584239
-0.019252,-0.040622,-0.026063,-0.106658,-0.046192,-0.069130,-0.118248,0.012308,0.493378,0.554818,0.522015,0.597595,0.568734,0.579477,0.688677,0.586207
-0.015246,-0.038904,-0.027320,-0.108357,-0.046834,-0.067166,-0.118443,0.011972,0.490189,0.554694,0.523530,0.604077,0.568795,0.574646,0.691340,0.585205
-0.005570,-0.039785,-0.026619,-0.107834,-0.047414,-0.065725,-0.118462,0.012639,0.496362,0.554957,0.525003,0.599367,0.571287,0.574144,0.691099,0.583815
-0.020921,-0.040090,-0.027262,-0.104982,-0.048602,-0.068251,-0.116662,0.013058,0.494762,0.553611,0.522575,0.594689,0.570183,0.573067,0.689281,0.583631
-0.014754,-0.040651,-0.024870,-0.102268,-0.045177,-0.065736,-0.120092,0.013247,0.500353,0.555827,0.520183,0.596260,0.571861,0.573068,0.690072,0.582577
-0.013343,-0.036954,-0.026216,-0.106543,-0.044304,-0.069031,-0.117161,0.010540,0.494338,0.555328,0.523284,0.602647,0.571179,0.576681,0.688419,0.586991
-0.013047,-0.037224,-0.026051,-0.104975,-0.050344,-0.067389,-0.116926,0.011381,0.493939,0.550409,0.523250,0.597689,0.572046,0.574735,0.687654,0.584005
-0.008407,-0.039327,-0.026618,-0.105132,-0.047542,-0.067953,-0.118477,0.011786,0.493308,0.554871,0.524660,0.597161,0.575267,0.574662,0.688306,0.584360
-0.017678,-0.042929,-0.028521,-0.105744,-0.048148,-0.065393,-0.117278,0.012279,0.498328,0.556017,0.523939,0.600694,0.572138,0.573505,0.689199,0.583795
-0.025351,-0.039044,-0.027446,-0.109466,-0.047575,-0.070449,-0.116867,0.012458,0.490256,0.551764,0.524123,0.603306,0.570140,0.578442,0.689356,0.584584
-0.016133,-0.040781,-0.027308,-0.109605,-0.047681,-0.069555,-0.118786,0.013237,0.503519,0.553103,0.525016,0.602297,0.571528,0.577756,0.689226,0.584500
-0.012850,-0.040249,-0.027561,-0.110370,-0.047789,-0.070301,-0.117931,0.013597,0.501705,0.554794,0.523869,0.600315,0.570781,0.579581,0.690075,0.586479
-0.018498,-0.042525,-0.026381,-0.108914,-0.047146,-0.069927,-0.117634,0.013078,0.509436,0.553995,0.523988,0.601625,0.569192,0.579240,0.689772,0.583883
-0.017944,-0.038803,-0.026873,-0.109330,-0.047790,-0.069545,-0.118419,0.012714,0.497244,0.551979,0.522148,0.603542,0.567880,0.579783,0.689698,0.586147
-0.014423,-0.040972,-0.023184,-0.104551,-0.047141,-0.066439,-0.119612,0.013126,0.496715,0.551595,0.523051,0.596782,0.567228,0.579288,0.690130,0.585621
-0.003626,-0.039934,-0.026745,-0.108719,-0.046118,-0.068672,-0.119504,0.013210,0.498056,0.552567,0.522743,0.603272,0.568356,0.579956,0.688730,0.586259
-0.022298,-0.041064,-0.027725,-0.108099,-0.047638,-0.070258,-0.118818,0.013457,0.500027,0.553090,0.522647,0.602590,0.566723,0.580250,0.689735,0.584548
-0.019163,-0.041572,-0.027460,-0.107775,-0.047271,-0.070790,-0.117760,0.012705,0.491941,0.555967,0.524100,0.602800,0.568241,0.583032,0.690413,0.584788
-0.005818,-0.037577,-0.027314,-0.105132,-0.047801,-0.071315,-0.119444,0.012205,0.499363,0.553119,0.524995,0.600057,0.567518,0.581928,0.690835,0.585094
-0.014687,-0.041403,-0.027245,-0.110036,-0.048778,-0.072112,-0.119582,0.012490,0.495600,0.551970,0.522818,0.602153,0.568836,0.583944,0.690545,0.584319
-0.008709,-0.041948,-0.026137,-0.106478,-0.046791,-0.068734,-0.119202,0.011954,0.499317,0.554169,0.522737,0.598525,0.568369,0.582467,0.690068,0.585385
-0.012300,-0.044689,-0.026541,-0.110791,-0.047846,-0.068924,-0.119181,0.013080,0.494661,0.554407,0.525576,0.604532,0.569139,0.582447,0.689633,0.583947
-0.013521,-0.036767,-0.028723,-0.109722,-0.048989,-0.069369,-0.118721,0.013551,0.504628,0.551296,0.526690,0.598651,0.569481,0.582007,0.689799,0.583482
-0.014579,-0.041419,-0.028803,-0.111287,-0.048859,-0.068093,-0.119801,0.013007,0.494487,0.549995,0.523373,0.605310,0.569299,0.579050,0.689758,0.584827
0.001120,-0.042394,-0.027345,-0.108751,-0.049860,-0.067214,-0.118640,0.011787,0.490753,0.553997,0.523536,0.603209,0.569503,0.576223,0.688677,0.585285
-0.013883,-0.040586,-0.027452,-0.106087,-0.048403,-0.069176,-0.120083,0.013402,0.503053,0.551770,0.522607,0.600430,0.566824,0.579712,0.690053,0.585064
-0.017331,-0.038896,-0.027283,-0.109558,-0.047929,-0.071735,-0.120401,0.013389,0.496422,0.551120,0.523531,0.603313,0.566682,0.579907,0.690095,0.585037
-0.010980,-0.035345,-0.027794,-0.111843,-0.048975,-0.069018,-0.119417,0.012847,0.500456,0.553488,0.525857,0.605030,0.566824,0.578919,0.691116,0.584332
-0.023240,-0.040231,-0.028334,-0.107121,-0.048233,-0.068006,-0.119342,0.012271,0.497743,0.556182,0.523485,0.601323,0.566949,0.578687,0.690229,0.583881
-0.006941,-0.039347,-0.025610,-0.104994,-0.049410,-0.066773,-0.120038,0.012853,0.497010,0.555351,0.522600,0.593570,0.569523,0.576084,0.690942,0.585477
-0.008678,-0.039039,-0.029023,-0.110393,-0.047251,-0.067977,-0.120343,0.011158,0.492754,0.552371,0.523865,0.603182,0.567668,0.577211,0.690242,0.586111
-0.014606,-0.043878,-0.028642,-0.106871,-0.048576,-0.068089,-0.121989,0.012049,0.504257,0.550410,0.525568,0.599491,0.566672,0.580106,0.691918,0.584924
-0.007462,-0.040051,-0.025779,-0.105291,-0.048827,-0.067908,-0.121516,0.013392,0.502123,0.552811,0.525140,0.597382,0.569185,0.579041,0.690071,0.584850
-0.012600,-0.040785,-0.025442,-0.106650,-0.051089,-0.067804,-0.120675,0.013018,0.500599,0.554087,0.524161,0.597300,0.570195,0.581116,0.689765,0.584962
-0.016200,-0.041884,-0.027774,-0.110263,-0.048385,-0.065581,-0.121864,0.013095,0.496091,0.553745,0.522361,0.602977,0.571412,0.578205,0.688549,0.584353
-0.015643,-0.038934,-0.026524,-0.109544,-0.046773,-0.068698,-0.121012,0.013135,0.498235,0.553514,0.522040,0.601091,0.570133,0.576686,0.688574,0.584913
-0.012042,-0.046173,-0.029164,-0.105835,-0.048998,-0.067446,-0.120660,0.012165,0.498820,0.552743,0.523488,0.601739,0.569502,0.576573,0.690256,0.584668
-0.014579,-0.042723,-0.025981,-0.109990,-0.045114,-0.066490,-0.122250,0.011833,0.493258,0.553856,0.523382,0.602800,0.569778,0.577137,0.688592,0.586265
-0.003874,-0.041394,-0.028334,-0.110115,-0.046191,-0.065560,-0.121714,0.012083,0.499983,0.554459,0.525843,0.604170,0.572126,0.578484,0.687466,0.585025
-0.018526,-0.042258,-0.028666,-0.107645,-0.047774,-0.066622,-0.121764,0.012372,0.499444,0.550998,0.525664,0.605604,0.570130,0.579964,0.690613,0.583625
-0.010789,-0.041901,-0.028126,-0.106673,-0.047442,-0.065926,-0.121612,0.012606,0.506425,0.553158,0.524730,0.600025,0.568515,0.579525,0.690306,0.584377
-0.013342,-0.038286,-0.027102,-0.108928,-0.045882,-0.068808,-0.121512,0.012098,0.500690,0.553535,0.524336,0.599946,0.569965,0.581634,0.688788,0.584126
-0.017658,-0.037936,-0.028050,-0.108687,-0.047344,-0.069830,-0.122015,0.012508,0.503167,0.554564,0.526134,0.604645,0.569554,0.582245,0.689531,0.584911
-0.011228,-0.044121,-0.027435,-0.109314,-0.047713,-0.069050,-0.121976,0.013603,0.497834,0.556018,0.525312,0.606192,0.567178,0.582103,0.689518,0.585124
-0.016055,-0.039266,-0.024184,-0.109654,-0.049159,-0.069418,-0.121862,0.011877,0.502996,0.551367,0.523748,0.601732,0.565389,0.582647,0.688727,0.585045
-0.014302,-0.044441,-0.028180,-0.108013,-0.046979,-0.071131,-0.121558,0.013659,0.497970,0.550050,0.524446,0.605414,0.563556,0.584210,0.689251,0.584037
-0.016489,-0.043281,-0.026316,-0.112737,-0.047915,-0.069953,-0.122068,0.012795,0.498006,0.551231,0.523714,0.605048,0.565673,0.582325,0.690046,0.583984
-0.012264,-0.038289,-0.025738,-0.107358,-0.046952,-0.069840,-0.121125,0.013012,0.499927,0.553854,0.524003,0.603906,0.564907,0.582727,0.690552,0.584684
-0.014625,-0.041820,-0.028900,-0.107026,-0.047835,-0.068032,-0.122629,0.013149,0.492753,0.553924,0.526565,0.600759,0.565430,0.582474,0.689031,0.584981
-0.015868,-0.038884,-0.029901,-0.109261,-0.046834,-0.069169,-0.122053,0.011539,0.494624,0.550881,0.524507,0.601413,0.565182,0.581772,0.688618,0.584965
-0.014102,-0.027401,-0.026213,-0.107663,-0.045669,-0.070309,-0.121913,0.011729,0.531640,0.557011,0.530131,0.602876,0.567066,0.582864,0.688378,0.586622
-0.013205,-0.023989,-0.024148,-0.105881,-0.044117,-0.069913,-0.122000,0.011949,0.549441,0.560723,0.534096,0.603559,0.568439,0.584070,0.688244,0.587418
-0.013781,-0.023789,-0.023754,-0.104887,-0.042785,-0.068599,-0.122094,0.011821,0.559149,0.563728,0.537694,0.604014,0.569717,0.585432,0.688151,0.588706
-0.012780,-0.023214,-0.022864,-0.103524,-0.042208,-0.068160,-0.122168,0.011791,0.564982,0.565314,0.539986,0.604426,0.570752,0.586523,0.688084,0.589247
-0.010015,-0.022306,-0.022762,-0.102214,-0.041017,-0.066582,-0.122350,0.011694,0.568334,0.567554,0.542763,0.604847,0.572312,0.587406,0.688017,0.590281
-0.013764,-0.020523,-0.021391,-0.101064,-0.040357,-0.066386,-0.122396,0.011429,0.576165,0.568092,0.544741,0.605179,0.573296,0.587880,0.687938,0.590876
-0.011902,-0.020769,-0.022431,-0.100017,-0.039785,-0.065377,-0.122457,0.010803,0.582378,0.569168,0.546727,0.605393,0.574017,0.588436,0.687977,0.591860
-0.012911,-0.019741,-0.021271,-0.099024,-0.039207,-0.064424,-0.122609,0.011371,0.586213,0.569775,0.548380,0.605385,0.574485,0.588935,0.687936,0.592901
-0.011491,-0.018314,-0.020756,-0.097532,-0.038613,-0.063726,-0.122727,0.011047,0.584813,0.570006,0.549950,0.605678,0.575340,0.589867,0.687956,0.593873
-0.011620,-0.019046,-0.020467,-0.096404,-0.038929,-0.063300,-0.122734,0.010751,0.583298,0.571114,0.551481,0.605838,0.576237,0.590642,0.687842,0.594261
-0.013054,-0.018919,-0.019702,-0.095322,-0.038494,-0.062288,-0.122803,0.010553,0.586135,0.571878,0.552453,0.605932,0.576650,0.591449,0.687889,0.595692
-0.011589,-0.017955,-0.020556,-0.094740,-0.038117,-0.062271,-0.122852,0.010747,0.588195,0.572713,0.553796,0.606158,0.577054,0.591700,0.687887,0.595541
-0.012250,-0.018684,-0.019851,-0.093749,-0.037603,-0.061390,-0.122832,0.010610,0.591381,0.573634,0.554915,0.606274,0.577433,0.592357,0.687881,0.595704
-0.013581,-0.016942,-0.019383,-0.093655,-0.037219,-0.060611,-0.122831,0.010153,0.592277,0.573674,0.555733,0.606324,0.577829,0.592593,0.687906,0.596912
-0.014079,-0.017012,-0.019792,-0.092149,-0.036920,-0.060145,-0.122880,0.010343,0.593708,0.574373,0.556558,0.606583,0.578056,0.593136,0.687940,0.597185
-0.011407,-0.015840,-0.019001,-0.091450,-0.036163,-0.059755,-0.122980,0.010038,0.594525,0.574861,0.557218,0.606630,0.578593,0.593659,0.688061,0.598521
-0.012108,-0.015925,-0.018736,-0.090941,-0.035859,-0.058842,-0.123165,0.009478,0.589863,0.575266,0.557796,0.606737,0.578901,0.594061,0.687948,0.598580
-0.011529,-0.015871,-0.019419,-0.090704,-0.035670,-0.058693,-0.123233,0.009234,0.594573,0.576188,0.558712,0.606867,0.579332,0.594603,0.687955,0.599023
-0.012009,-0.016065,-0.018108,-0.090037,-0.035951,-0.058225,-0.123346,0.009433,0.597320,0.576816,0.558850,0.606888,0.579626,0.595112,0.687975,0.599424
-0.011192,-0.015809,-0.017730,-0.089435,-0.035055,-0.057521,-0.123356,0.009359,0.595808,0.576684,0.559408,0.606879,0.579693,0.595351,0.687990,0.599460
-0.010096,-0.014255,-0.018639,-0.088842,-0.034716,-0.056500,-0.123669,0.009296,0.596879,0.576606,0.560058,0.607068,0.579857,0.595591,0.688077,0.600234
-0.013777,-0.015838,-0.019165,-0.087889,-0.034462,-0.056843,-0.123567,0.009206,0.600199,0.576840,0.560522,0.607151,0.580078,0.596234,0.688113,0.601012
-0.011705,-0.014047,-0.019011,-0.088528,-0.034506,-0.056455,-0.123454,0.008716,0.600974,0.576652,0.560746,0.607088,0.580318,0.596404,0.688190,0.601194
-0.014107,-0.014512,-0.017542,-0.088166,-0.034494,-0.055999,-0.123486,0.008882,0.604021,0.576573,0.561586,0.607211,0.580508,0.596609,0.688279,0.601728
-0.013201,-0.015444,-0.017425,-0.087785,-0.034112,-0.056428,-0.123523,0.009399,0.600509,0.577347,0.562147,0.607120,0.580761,0.596716,0.688256,0.601945
-0.013535,-0.015450,-0.017812,-0.086784,-0.033927,-0.055317,-0.123848,0.009947,0.601687,0.577964,0.562676,0.607324,0.581078,0.596999,0.688255,0.602355
-0.013011,-0.015122,-0.017425,-0.086074,-0.033550,-0.054955,-0.123807,0.008836,0.601811,0.577980,0.562658,0.607461,0.581459,0.597315,0.688203,0.602858
-0.011051,-0.015205,-0.016719,-0.085616,-0.033605,-0.054508,-0.123890,0.008886,0.603904,0.578218,0.563172,0.607538,0.581908,0.597673,0.688257,0.603626
-0.012238,-0.014543,-0.016590,-0.085098,-0.033199,-0.054049,-0.124007,0.009400,0.603195,0.578349,0.563367,0.607426,0.581994,0.597678,0.688201,0.603687
-0.011502,-0.013835,-0.016528,-0.085324,-0.032561,-0.053812,-0.123984,0.009202,0.602198,0.578429,0.563782,0.607406,0.582237,0.597704,0.688343,0.604341
-0.011351,-0.014566,-0.017294,-0.084955,-0.032574,-0.053937,-0.124073,0.008889,0.600145,0.578905,0.564104,0.607520,0.582319,0.597858,0.688296,0.604715
-0.011291,-0.014362,-0.016328,-0.084653,-0.032450,-0.054160,-0.124121,0.008822,0.602508,0.579100,0.564433,0.607446,0.582376,0.598006,0.688285,0.604778
-0.011272,-0.014578,-0.016416,-0.083717,-0.032253,-0.053760,-0.124102,0.008617,0.602934,0.580137,0.565023,0.607582,0.582539,0.598214,0.688351,0.605366
-0.011892,-0.014927,-0.016480,-0.083224,-0.032134,-0.054185,-0.124180,0.009102,0.599913,0.580088,0.565507,0.607591,0.582791,0.598449,0.688356,0.605171
-0.012382,-0.013621,-0.016505,-0.082878,-0.032117,-0.053540,-0.124223,0.008487,0.602158,0.580038,0.565875,0.607588,0.583041,0.598394,0.688296,0.605281
-0.008637,-0.012566,-0.015988,-0.082992,-0.031979,-0.053478,-0.124270,0.008339,0.598692,0.579249,0.566010,0.607655,0.583023,0.598561,0.688237,0.605442
-0.010242,-0.013297,-0.016170,-0.082173,-0.031812,-0.053289,-0.124283,0.008656,0.597217,0.579750,0.566439,0.607705,0.583118,0.598562,0.688313,0.605634
-0.010192,-0.012926,-0.015764,-0.082056,-0.031848,-0.053090,-0.124068,0.008079,0.601358,0.579815,0.566859,0.607663,0.583259,0.598604,0.688352,0.606155
-0.012203,-0.012755,-0.016547,-0.081274,-0.031636,-0.053090,-0.124210,0.008732,0.601482,0.579882,0.567223,0.607660,0.583387,0.598698,0.688401,0.606047
-0.011984,-0.012248,-0.016198,-0.081502,-0.031114,-0.052572,-0.124155,0.009050,0.601425,0.579801,0.567246,0.607462,0.583520,0.598955,0.688447,0.606134
-0.011383,-0.012205,-0.016364,-0.080646,-0.030861,-0.051962,-0.124144,0.008618,0.602476,0.580093,0.567266,0.607478,0.583662,0.599095,0.688512,0.606742
-0.009677,-0.012156,-0.014857,-0.080997,-0.031081,-0.051973,-0.124137,0.008936,0.599403,0.580151,0.567657,0.607465,0.583712,0.599331,0.688596,0.606591
-0.010975,-0.012775,-0.015547,-0.080371,-0.030796,-0.051776,-0.124242,0.008998,0.600334,0.580341,0.568258,0.607659,0.583826,0.599549,0.688577,0.606975
-0.012669,-0.013397,-0.015784,-0.080583,-0.030121,-0.051404,-0.124300,0.008761,0.597820,0.580168,0.568300,0.607615,0.583839,0.599509,0.688623,0.607729
-0.011225,-0.011548,-0.015835,-0.080588,-0.030660,-0.051469,-0.124354,0.009007,0.602681,0.580223,0.568429,0.607590,0.584048,0.599412,0.688580,0.607998
-0.011624,-0.010254,-0.015533,-0.080073,-0.030527,-0.051354,-0.124340,0.008739,0.599466,0.580560,0.568686,0.607572,0.583903,0.599407,0.688660,0.608033
-0.014057,-0.010656,-0.015088,-0.079386,-0.030282,-0.051374,-0.124224,0.008435,0.600928,0.581145,0.568446,0.607584,0.584062,0.599362,0.688811,0.608671
-0.011201,-0.011329,-0.016174,-0.078945,-0.030436,-0.050797,-0.124482,0.008952,0.599940,0.580985,0.568631,0.607724,0.584058,0.599477,0.688784,0.608495
-0.010667,-0.010985,-0.015943,-0.079458,-0.030384,-0.050247,-0.124218,0.008668,0.601481,0.581338,0.568644,0.607587,0.584107,0.599345,0.688855,0.609253
-0.011232,-0.010110,-0.015796,-0.078706,-0.030551,-0.050132,-0.124373,0.007851,0.599803,0.581357,0.568767,0.607684,0.584286,0.599541,0.688895,0.609194
-0.011232,-0.010110,-0.015797,-0.078706,-0.030550,-0.050132,-0.124373,0.007845,0.599803,0.581358,0.568767,0.607684,0.584287,0.599541,0.688895,0.609203
-0.011232,-0.010111,-0.015797,-0.078707,-0.030551,-0.050133,-0.124373,0.007845,0.599803,0.581359,0.568767,0.607684,0.584287,0.599541,0.688895,0.609203
-0.011232,-0.010111,-0.015796,-0.078707,-0.030551,-0.050133,-0.124373,0.007845,0.599803,0.581358,0.568767,0.607684,0.584287,0.599541,0.688895,0.609203
-0.011232,-0.010110,-0.015796,-0.078706,-0.030551,-0.050133,-0.124373,0.007845,0.599803,0.581357,0.568767,0.607685,0.584287,0.599541,0.688895,0.609203
-0.011232,-0.010111,-0.015795,-0.078706,-0.030551,-0.050133,-0.124373,0.007845,0.599803,0.581356,0.568767,0.607685,0.584287,0.599542,0.688895,0.609203
-0.011232,-0.010111,-0.015796,-0.078706,-0.030551,-0.050133,-0.124373,0.007837,0.599803,0.581356,0.568767,0.607685,0.584287,0.599542,0.688895,0.609205
1_mean,2_mean,3_mean,4_mean,5_mean,6_mean,7_mean,8_mean,1_std,2_std,3_std,4_std,5_std,6_std,7_std,8_std
0.012888,-0.002775,0.009617,0.001512,0.000183,-0.009669,-0.028667,-0.013627,0.506263,0.626576,0.617947,0.633422,0.651095,0.664823,0.700282,0.658584
-0.006612,-0.009662,0.000981,-0.018503,-0.002586,-0.020211,-0.034750,-0.010874,0.450796,0.586638,0.571523,0.598557,0.614547,0.632002,0.691960,0.652237
-0.014074,-0.017048,0.001469,-0.025347,-0.003750,-0.025259,-0.037612,-0.009989,0.429246,0.554229,0.547384,0.575950,0.586474,0.609974,0.686839,0.650496
-0.012871,-0.023570,-0.005296,-0.040471,-0.005599,-0.029642,-0.042798,-0.006698,0.441686,0.539887,0.532467,0.572192,0.567255,0.592879,0.683691,0.646835
-0.017443,-0.025416,-0.004829,-0.046332,-0.008636,-0.033507,-0.047750,-0.006124,0.458056,0.533438,0.526106,0.571385,0.554396,0.578747,0.682546,0.642709
-0.007493,-0.029779,-0.010642,-0.050263,-0.010181,-0.036793,-0.049779,-0.004064,0.464906,0.529716,0.524160,0.575314,0.545569,0.568456,0.682131,0.640177
-0.016183,-0.036716,-0.011934,-0.056705,-0.012031,-0.041391,-0.053409,-0.004014,0.474046,0.527910,0.522382,0.575263,0.536710,0.560396,0.682759,0.635003
-0.017478,-0.030741,-0.010761,-0.061622,-0.016315,-0.042639,-0.057697,-0.002884,0.470102,0.527930,0.524313,0.571524,0.533445,0.553848,0.685765,0.629775
-0.011112,-0.038426,-0.016234,-0.064468,-0.018925,-0.046725,-0.060723,-0.000862,0.467142,0.530031,0.524060,0.574462,0.532743,0.549975,0.686851,0.625114
-0.013938,-0.039941,-0.015459,-0.064765,-0.021291,-0.051287,-0.061845,0.000754,0.477222,0.529422,0.523167,0.566156,0.532568,0.548251,0.684764,0.622503
-0.016089,-0.037626,-0.018151,-0.067043,-0.022844,-0.055898,-0.062078,0.000314,0.473061,0.529916,0.522797,0.565519,0.533322,0.547634,0.683943,0.622064
-0.011230,-0.041237,-0.016391,-0.067273,-0.024978,-0.058075,-0.065894,0.000636,0.477495,0.529357,0.521673,0.565532,0.533796,0.546293,0.685113,0.620291
-0.017825,-0.038486,-0.016645,-0.073060,-0.025209,-0.059520,-0.067939,0.000156,0.477515,0.531331,0.522458,0.572159,0.534845,0.545026,0.684338,0.616668
-0.009903,-0.038084,-0.021997,-0.078381,-0.028176,-0.060722,-0.068084,0.001607,0.480216,0.534157,0.522274,0.579383,0.538090,0.545661,0.685011,0.615242
-0.011806,-0.043811,-0.021500,-0.077325,-0.029224,-0.064269,-0.070370,0.001744,0.483429,0.536825,0.522276,0.581320,0.540789,0.547934,0.684633,0.613117
-0.014535,-0.042611,-0.023610,-0.083232,-0.030756,-0.064519,-0.071783,0.001153,0.482251,0.541266,0.520643,0.589163,0.542496,0.547469,0.687905,0.612815
-0.012747,-0.038487,-0.020364,-0.086032,-0.033134,-0.067130,-0.073069,0.001239,0.481360,0.543643,0.519231,0.592281,0.543582,0.547467,0.684601,0.611269
-0.015498,-0.042999,-0.024532,-0.088155,-0.030888,-0.066405,-0.073426,0.002840,0.483425,0.545316,0.520163,0.594241,0.541921,0.548494,0.685961,0.609332
-0.012575,-0.047668,-0.023405,-0.085848,-0.030799,-0.068561,-0.072890,0.002180,0.489025,0.546575,0.519817,0.594008,0.541931,0.549928,0.685731,0.608622
-0.007851,-0.046202,-0.025924,-0.090119,-0.030806,-0.066290,-0.076644,0.003379,0.485445,0.546322,0.520707,0.596550,0.541427,0.550418,0.687647,0.608036
-0.017889,-0.039975,-0.023176,-0.089958,-0.033315,-0.071352,-0.077425,0.002971,0.482870,0.546020,0.517311,0.592553,0.540764,0.554715,0.685742,0.606455
-0.012754,-0.040830,-0.026014,-0.087142,-0.032325,-0.070554,-0.077654,0.002497,0.488507,0.548931,0.517464,0.591344,0.540456,0.555302,0.685406,0.606079
-0.013978,-0.042532,-0.025867,-0.089889,-0.030773,-0.072783,-0.078574,0.003346,0.494348,0.548811,0.518827,0.593444,0.540700,0.557378,0.685213,0.605350
-0.013106,-0.042640,-0.027856,-0.089792,-0.031892,-0.074544,-0.080138,0.003079,0.487433,0.547424,0.518155,0.593519,0.539393,0.558585,0.687518,0.604981
-0.012147,-0.042173,-0.025772,-0.092082,-0.031945,-0.074686,-0.079556,0.003824,0.489677,0.550967,0.517182,0.588929,0.539376,0.559341,0.686286,0.602778
-0.017505,-0.043029,-0.023799,-0.085667,-0.032737,-0.074224,-0.080348,0.004153,0.490904,0.550355,0.517084,0.586423,0.537261,0.561470,0.686223,0.602292
-0.020072,-0.048310,-0.026109,-0.090080,-0.031113,-0.071821,-0.081731,0.004590,0.489492,0.551338,0.517721,0.586967,0.538461,0.561691,0.688331,0.601966
-0.018160,-0.043510,-0.024042,-0.087647,-0.032539,-0.072455,-0.082144,0.005111,0.494589,0.550210,0.519149,0.586007,0.538487,0.562355,0.687371,0.600776
-0.019744,-0.044482,-0.027029,-0.087868,-0.031414,-0.071730,-0.084059,0.003647,0.493216,0.546717,0.518496,0.582186,0.537470,0.560869,0.687701,0.601003
-0.008227,-0.040775,-0.024802,-0.085857,-0.030153,-0.070652,-0.083983,0.003727,0.492826,0.550661,0.517271,0.578870,0.537303,0.559801,0.688347,0.600887
1_mean,2_mean,3_mean,4_mean,5_mean,6_mean,7_mean,8_mean,1_std,2_std,3_std,4_std,5_std,6_std,7_std,8_std
0.012888,-0.002775,0.009617,0.001512,0.000183,-0.009669,-0.028667,-0.013627,0.506263,0.626576,0.617947,0.633422,0.651095,0.664823,0.700282,0.658584
-0.006612,-0.009662,0.000981,-0.018503,-0.002586,-0.020211,-0.034750,-0.010874,0.450796,0.586638,0.571523,0.598557,0.614547,0.632002,0.691960,0.652237
-0.014074,-0.017048,0.001469,-0.025347,-0.003750,-0.025259,-0.037612,-0.009989,0.429246,0.554229,0.547384,0.575950,0.586474,0.609974,0.686839,0.650496
-0.012871,-0.023570,-0.005296,-0.040471,-0.005599,-0.029642,-0.042798,-0.006698,0.441686,0.539887,0.532467,0.572192,0.567255,0.592879,0.683691,0.646835
-0.017443,-0.025416,-0.004829,-0.046332,-0.008636,-0.033507,-0.047750,-0.006124,0.458056,0.533438,0.526106,0.571385,0.554396,0.578747,0.682546,0.642709
-0.007493,-0.029779,-0.010642,-0.050263,-0.010181,-0.036793,-0.049779,-0.004064,0.464906,0.529716,0.524160,0.575314,0.545569,0.568456,0.682131,0.640177
-0.016183,-0.036716,-0.011934,-0.056705,-0.012031,-0.041391,-0.053409,-0.004014,0.474046,0.527910,0.522382,0.575263,0.536710,0.560396,0.682759,0.635003
-0.017478,-0.030741,-0.010761,-0.061622,-0.016315,-0.042639,-0.057697,-0.002884,0.470102,0.527930,0.524313,0.571524,0.533445,0.553848,0.685765,0.629775
-0.011112,-0.038426,-0.016234,-0.064468,-0.018925,-0.046725,-0.060723,-0.000862,0.467142,0.530031,0.524060,0.574462,0.532743,0.549975,0.686851,0.625114
-0.013938,-0.039941,-0.015459,-0.064765,-0.021291,-0.051287,-0.061845,0.000754,0.477222,0.529422,0.523167,0.566156,0.532568,0.548251,0.684764,0.622503
-0.016089,-0.037626,-0.018151,-0.067043,-0.022844,-0.055898,-0.062078,0.000314,0.473061,0.529916,0.522797,0.565519,0.533322,0.547634,0.683943,0.622064
-0.011230,-0.041237,-0.016391,-0.067273,-0.024978,-0.058075,-0.065894,0.000636,0.477495,0.529357,0.521673,0.565532,0.533796,0.546293,0.685113,0.620291
-0.017825,-0.038486,-0.016645,-0.073060,-0.025209,-0.059520,-0.067939,0.000156,0.477515,0.531331,0.522458,0.572159,0.534845,0.545026,0.684338,0.616668
-0.009903,-0.038084,-0.021997,-0.078381,-0.028176,-0.060722,-0.068084,0.001607,0.480216,0.534157,0.522274,0.579383,0.538090,0.545661,0.685011,0.615242
-0.011806,-0.043811,-0.021500,-0.077325,-0.029224,-0.064269,-0.070370,0.001744,0.483429,0.536825,0.522276,0.581320,0.540789,0.547934,0.684633,0.613117
-0.014535,-0.042611,-0.023610,-0.083232,-0.030756,-0.064519,-0.071783,0.001153,0.482251,0.541266,0.520643,0.589163,0.542496,0.547469,0.687905,0.612815
-0.012747,-0.038487,-0.020364,-0.086032,-0.033134,-0.067130,-0.073069,0.001239,0.481360,0.543643,0.519231,0.592281,0.543582,0.547467,0.684601,0.611269
-0.015498,-0.042999,-0.024532,-0.088155,-0.030888,-0.066405,-0.073426,0.002840,0.483425,0.545316,0.520163,0.594241,0.541921,0.548494,0.685961,0.609332
-0.012575,-0.047668,-0.023405,-0.085848,-0.030799,-0.068561,-0.072890,0.002180,0.489025,0.546575,0.519817,0.594008,0.541931,0.549928,0.685731,0.608622
-0.007851,-0.046202,-0.025924,-0.090119,-0.030806,-0.066290,-0.076644,0.003379,0.485445,0.546322,0.520707,0.596550,0.541427,0.550418,0.687647,0.608036
-0.017889,-0.039975,-0.023176,-0.089958,-0.033315,-0.071352,-0.077425,0.002971,0.482870,0.546020,0.517311,0.592553,0.540764,0.554715,0.685742,0.606455
-0.012754,-0.040830,-0.026014,-0.087142,-0.032325,-0.070554,-0.077654,0.002497,0.488507,0.548931,0.517464,0.591344,0.540456,0.555302,0.685406,0.606079
-0.013978,-0.042532,-0.025867,-0.089889,-0.030773,-0.072783,-0.078574,0.003346,0.494348,0.548811,0.518827,0.593444,0.540700,0.557378,0.685213,0.605350
-0.013106,-0.042640,-0.027856,-0.089792,-0.031892,-0.074544,-0.080138,0.003079,0.487433,0.547424,0.518155,0.593519,0.539393,0.558585,0.687518,0.604981
-0.012147,-0.042173,-0.025772,-0.092082,-0.031945,-0.074686,-0.079556,0.003824,0.489677,0.550967,0.517182,0.588929,0.539376,0.559341,0.686286,0.602778
-0.017505,-0.043029,-0.023799,-0.085667,-0.032737,-0.074224,-0.080348,0.004153,0.490904,0.550355,0.517084,0.586423,0.537261,0.561470,0.686223,0.602292
-0.019142,-0.043899,-0.026262,-0.089457,-0.030826,-0.071431,-0.081748,0.005402,0.486581,0.552346,0.518909,0.587089,0.538792,0.559918,0.687115,0.601989
-0.017452,-0.045789,-0.024099,-0.086069,-0.032646,-0.074432,-0.082016,0.004420,0.487540,0.552106,0.517863,0.588126,0.539478,0.562112,0.687234,0.601425
-0.019492,-0.045541,-0.026715,-0.085875,-0.031070,-0.073945,-0.083001,0.005133,0.483015,0.554640,0.517991,0.584673,0.537503,0.560529,0.686401,0.600808
-0.009397,-0.042111,-0.024972,-0.083164,-0.032780,-0.072156,-0.083356,0.006155,0.481745,0.552713,0.516540,0.576547,0.538099,0.561723,0.688451,0.599335
-0.014790,-0.047735,-0.022266,-0.083962,-0.032468,-0.073083,-0.083682,0.007515,0.486047,0.553791,0.517177,0.576450,0.539300,0.562385,0.685360,0.598509
-0.016257,-0.049452,-0.025593,-0.086766,-0.031552,-0.072078,-0.083852,0.007374,0.494314,0.552880,0.517421,0.576661,0.539228,0.563938,0.686931,0.598859
-0.015406,-0.045297,-0.023244,-0.086518,-0.031901,-0.071144,-0.084978,0.006918,0.489776,0.553711,0.517850,0.576694,0.539746,0.564244,0.686007,0.599291
-0.014902,-0.040954,-0.024011,-0.085940,-0.032191,-0.074216,-0.085958,0.007638,0.486418,0.554088,0.516873,0.576742,0.539198,0.565668,0.688172,0.598479
-0.017444,-0.038660,-0.023777,-0.084407,-0.033011,-0.072548,-0.086286,0.005886,0.487517,0.551138,0.517066,0.572042,0.541036,0.566064,0.687789,0.597828
-0.012290,-0.041932,-0.025372,-0.085769,-0.032659,-0.073617,-0.087815,0.007060,0.494709,0.551442,0.515661,0.573911,0.539888,0.565658,0.687565,0.597435
-0.012127,-0.044416,-0.022897,-0.084676,-0.032603,-0.073266,-0.087018,0.006028,0.494884,0.551904,0.517063,0.573756,0.541078,0.565190,0.687996,0.598026
-0.012152,-0.044690,-0.023216,-0.085673,-0.033153,-0.073585,-0.087840,0.007104,0.492912,0.552434,0.516944,0.575223,0.541479,0.565019,0.687222,0.598050
-0.017706,-0.044939,-0.023805,-0.087924,-0.033769,-0.071287,-0.088899,0.007046,0.489526,0.555548,0.516514,0.577180,0.542352,0.566158,0.688899,0.597578
-0.012715,-0.041956,-0.022552,-0.086343,-0.031635,-0.072902,-0.088741,0.005550,0.478526,0.554169,0.516976,0.574762,0.542599,0.565935,0.687473,0.597347
-0.013454,-0.050288,-0.024796,-0.087025,-0.033416,-0.073415,-0.090769,0.007966,0.490687,0.555501,0.516975,0.575472,0.543870,0.565072,0.688616,0.594803
-0.010024,-0.047252,-0.024399,-0.088528,-0.032485,-0.071684,-0.089434,0.008708,0.491240,0.555393,0.516460,0.578212,0.545031,0.564764,0.688942,0.594762
-0.017535,-0.044773,-0.022428,-0.083847,-0.036248,-0.069222,-0.090689,0.008387,0.491749,0.554287,0.518480,0.573805,0.546233,0.563683,0.689348,0.593363
-0.021598,-0.033206,-0.023109,-0.088699,-0.035591,-0.069665,-0.090294,0.009294,0.492046,0.552632,0.517408,0.571762,0.546810,0.566299,0.687605,0.594538
-0.014805,-0.045933,-0.023766,-0.084627,-0.035701,-0.070734,-0.089924,0.009193,0.490131,0.556177,0.518948,0.572698,0.547746,0.563090,0.689383,0.592783
-0.009954,-0.043683,-0.025431,-0.087364,-0.034665,-0.069218,-0.090870,0.008545,0.493717,0.556390,0.518894,0.573129,0.547867,0.563541,0.686661,0.592879
-0.014507,-0.039175,-0.023476,-0.090439,-0.037365,-0.072785,-0.090593,0.009759,0.500250,0.553246,0.518529,0.573904,0.549479,0.564938,0.689530,0.592521
-0.016421,-0.038877,-0.024302,-0.093222,-0.037589,-0.070468,-0.092550,0.008751,0.492082,0.552943,0.517380,0.578677,0.551782,0.565482,0.688365,0.592364
-0.022129,-0.040406,-0.022012,-0.087507,-0.038974,-0.070624,-0.090481,0.009013,0.493876,0.554338,0.516883,0.573978,0.551652,0.564063,0.687088,0.591283
-0.016787,-0.039071,-0.023361,-0.083743,-0.036376,-0.071596,-0.091711,0.008437,0.497766,0.553491,0.517475,0.572449,0.549704,0.565592,0.688390,0.592100
-0.017311,-0.041996,-0.023470,-0.086478,-0.034999,-0.070194,-0.093051,0.009562,0.493657,0.555283,0.516991,0.572482,0.551201,0.565321,0.688654,0.590902
-0.019764,-0.046550,-0.022883,-0.087280,-0.038064,-0.069208,-0.094417,0.008357,0.499829,0.558528,0.517652,0.572811,0.551966,0.564062,0.688451,0.590746
-0.016942,-0.045865,-0.023164,-0.087261,-0.039030,-0.069553,-0.095389,0.009102,0.494655,0.554022,0.516864,0.572847,0.554743,0.564542,0.688980,0.590732
-0.018823,-0.041305,-0.023531,-0.085504,-0.037745,-0.069276,-0.095529,0.007570,0.497950,0.555343,0.517560,0.574670,0.553568,0.564073,0.689087,0.590974
-0.011771,-0.037278,-0.021481,-0.086265,-0.038194,-0.067798,-0.096033,0.008614,0.494031,0.554886,0.518555,0.572685,0.553211,0.563695,0.687741,0.592327
-0.020735,-0.040654,-0.022914,-0.085248,-0.040602,-0.068263,-0.096764,0.008048,0.494229,0.557178,0.519056,0.572213,0.557695,0.564766,0.685969,0.592402
-0.014691,-0.041383,-0.022476,-0.088717,-0.036720,-0.067672,-0.097868,0.009408,0.500811,0.552864,0.518001,0.571630,0.555376,0.564473,0.689963,0.593561
-0.012065,-0.038735,-0.021435,-0.086686,-0.038704,-0.072619,-0.097879,0.008292,0.497537,0.555846,0.516612,0.572034,0.558645,0.565442,0.688530,0.592149
-0.022243,-0.039681,-0.023626,-0.088572,-0.039755,-0.069591,-0.097864,0.009227,0.496070,0.552354,0.516051,0.573711,0.561225,0.564694,0.687926,0.592493
-0.019690,-0.039065,-0.021668,-0.087749,-0.039766,-0.070982,-0.096579,0.009512,0.496252,0.554166,0.518254,0.571574,0.559588,0.567376,0.688365,0.592453
-0.013354,-0.039059,-0.022089,-0.089282,-0.040933,-0.070007,-0.097981,0.010808,0.492359,0.555248,0.517730,0.573126,0.562945,0.566318,0.688992,0.590991
-0.012233,-0.041963,-0.025574,-0.090600,-0.041546,-0.070138,-0.098405,0.010844,0.489395,0.556945,0.518115,0.574726,0.563298,0.566762,0.689316,0.590019
-0.022235,-0.040067,-0.022213,-0.087610,-0.039154,-0.070325,-0.098809,0.009990,0.489278,0.556867,0.516975,0.573617,0.565097,0.566210,0.688273,0.590321
-0.012418,-0.037279,-0.025644,-0.091355,-0.042755,-0.069776,-0.098822,0.010982,0.494515,0.556802,0.517113,0.575216,0.564922,0.565382,0.686552,0.590363
-0.014227,-0.042900,-0.023050,-0.089795,-0.040313,-0.069243,-0.098507,0.010125,0.492357,0.555191,0.516900,0.575587,0.564261,0.565438,0.687351,0.589529
-0.013023,-0.038528,-0.024863,-0.089944,-0.041188,-0.070951,-0.098972,0.009803,0.497876,0.555581,0.518448,0.574653,0.563179,0.564741,0.686953,0.589931
-0.011204,-0.044035,-0.028003,-0.089067,-0.041221,-0.070750,-0.100516,0.010289,0.492980,0.556051,0.517387,0.579127,0.566648,0.564278,0.690106,0.589654
-0.015539,-0.044780,-0.025570,-0.089930,-0.040639,-0.069020,-0.100505,0.010922,0.483667,0.554957,0.517595,0.576364,0.565360,0.565249,0.688798,0.588895
-0.000298,-0.041696,-0.024735,-0.094428,-0.041156,-0.068749,-0.099303,0.012079,0.487728,0.554471,0.518008,0.583384,0.565120,0.563654,0.690105,0.589523
-0.018377,-0.040197,-0.026077,-0.094674,-0.044831,-0.067671,-0.100880,0.011355,0.494202,0.551899,0.520004,0.577968,0.564437,0.564211,0.687139,0.591320
-0.011935,-0.041680,-0.024112,-0.092146,-0.042172,-0.068072,-0.100974,0.010502,0.494798,0.557420,0.518916,0.579288,0.566122,0.563943,0.690068,0.590194
-0.015442,-0.041264,-0.025076,-0.089244,-0.041146,-0.070671,-0.100958,0.011486,0.486301,0.556097,0.518430,0.582712,0.564537,0.565571,0.689496,0.588948
-0.009574,-0.041834,-0.025392,-0.096954,-0.044248,-0.068165,-0.101173,0.010557,0.499644,0.553509,0.519167,0.585515,0.567604,0.564248,0.688960,0.590210
-0.015799,-0.044249,-0.025211,-0.094606,-0.043600,-0.068528,-0.102614,0.011984,0.493857,0.553766,0.518989,0.585655,0.571170,0.563727,0.688626,0.588775
-0.014636,-0.045499,-0.025857,-0.098220,-0.041300,-0.068111,-0.101991,0.012272,0.499052,0.554722,0.518758,0.589437,0.570601,0.565513,0.687545,0.589975
-0.024517,-0.045534,-0.025074,-0.097061,-0.041625,-0.066514,-0.102873,0.011774,0.499838,0.555930,0.518215,0.588078,0.567441,0.562913,0.688477,0.589437
-0.008062,-0.043687,-0.024363,-0.092173,-0.041668,-0.069291,-0.104332,0.011275,0.491001,0.557723,0.518141,0.584635,0.566695,0.566053,0.690418,0.588938
-0.015462,-0.038515,-0.027025,-0.096517,-0.043142,-0.070019,-0.103366,0.010927,0.490910,0.558131,0.518553,0.584915,0.564566,0.564828,0.689190,0.588979
-0.016176,-0.042993,-0.025238,-0.097961,-0.041180,-0.067153,-0.104394,0.009829,0.496538,0.556074,0.518982,0.584169,0.569038,0.565551,0.688779,0.590441
-0.018199,-0.041053,-0.027032,-0.100522,-0.043049,-0.066474,-0.105543,0.011621,0.494714,0.555878,0.518008,0.586253,0.570662,0.565236,0.689715,0.588195
-0.011616,-0.040975,-0.028035,-0.100892,-0.042468,-0.068134,-0.106812,0.012304,0.487601,0.556337,0.519575,0.589491,0.570596,0.565377,0.689271,0.587467
-0.020171,-0.043486,-0.026049,-0.101001,-0.043295,-0.066667,-0.104355,0.011572,0.495753,0.556882,0.518313,0.591298,0.571952,0.564906,0.689391,0.588778
-0.015810,-0.033550,-0.026831,-0.101306,-0.044759,-0.065889,-0.106444,0.013323,0.501369,0.553147,0.519743,0.586844,0.572195,0.563066,0.691309,0.588296
-0.016022,-0.043629,-0.025193,-0.102003,-0.046490,-0.066856,-0.105662,0.012638,0.501580,0.555164,0.516769,0.593845,0.573820,0.564807,0.689665,0.587198
-0.013910,-0.044052,-0.027596,-0.102725,-0.044003,-0.066561,-0.104865,0.012156,0.499396,0.555417,0.520734,0.592343,0.573000,0.564749,0.689978,0.586699
-0.019091,-0.042598,-0.025163,-0.097482,-0.045142,-0.066512,-0.105266,0.012595,0.500403,0.556945,0.520872,0.592260,0.573330,0.564460,0.688399,0.587299
-0.015109,-0.043955,-0.025766,-0.103786,-0.044752,-0.068898,-0.106223,0.012278,0.496068,0.556192,0.519344,0.590340,0.571079,0.566016,0.688914,0.588057
-0.014413,-0.044759,-0.026593,-0.100247,-0.045011,-0.066932,-0.106007,0.013746,0.504041,0.554352,0.517513,0.589364,0.572457,0.565056,0.689574,0.586868
-0.014880,-0.041286,-0.026915,-0.099664,-0.043585,-0.066657,-0.107242,0.012944,0.493216,0.554402,0.518219,0.590517,0.572057,0.566646,0.690342,0.587015
-0.018623,-0.042725,-0.026375,-0.099873,-0.043153,-0.066101,-0.107291,0.013738,0.493696,0.554924,0.519625,0.591200,0.570394,0.564781,0.688690,0.587531
-0.014991,-0.048855,-0.025763,-0.098545,-0.044313,-0.067734,-0.107206,0.013734,0.496843,0.558770,0.520285,0.592915,0.570946,0.565493,0.690005,0.587419
-0.010499,-0.042264,-0.026386,-0.106782,-0.043364,-0.068410,-0.107171,0.013261,0.494089,0.554631,0.519758,0.596720,0.570928,0.566672,0.688717,0.587579
-0.017625,-0.036846,-0.023799,-0.102227,-0.048809,-0.067946,-0.107455,0.013985,0.496517,0.553272,0.517985,0.594796,0.573521,0.567462,0.687779,0.586905
-0.020713,-0.042870,-0.028108,-0.099485,-0.043713,-0.068958,-0.107469,0.014225,0.501898,0.558132,0.519774,0.593725,0.571314,0.567290,0.688709,0.587278
-0.011824,-0.049037,-0.026443,-0.101816,-0.046620,-0.064369,-0.108440,0.014421,0.505209,0.554894,0.519037,0.589942,0.573624,0.567182,0.690066,0.587081
-0.012116,-0.038691,-0.022010,-0.100412,-0.045428,-0.069087,-0.108616,0.014025,0.498399,0.554073,0.517174,0.592296,0.570597,0.565791,0.689769,0.586375
-0.016393,-0.044726,-0.028740,-0.102513,-0.042353,-0.064671,-0.110115,0.013079,0.505152,0.556697,0.518679,0.590511,0.573051,0.565316,0.690296,0.587275
-0.010748,-0.046182,-0.026480,-0.100169,-0.046473,-0.067264,-0.109079,0.013056,0.487589,0.552692,0.518958,0.591309,0.572469,0.565566,0.689070,0.586843
-0.014138,-0.044496,-0.027514,-0.102603,-0.047718,-0.069002,-0.110689,0.014194,0.501384,0.555661,0.520023,0.591934,0.575164,0.569223,0.690134,0.587212
-0.019755,-0.040921,-0.024256,-0.099815,-0.045190,-0.068595,-0.111610,0.014125,0.498833,0.553187,0.520512,0.591588,0.573058,0.568000,0.689022,0.586670
-0.007261,-0.043194,-0.023504,-0.104298,-0.048246,-0.067883,-0.111029,0.014201,0.492906,0.553254,0.519733,0.595725,0.577130,0.566581,0.690752,0.587060
-0.016562,-0.040764,-0.027986,-0.105764,-0.045405,-0.067049,-0.112345,0.014725,0.495154,0.554408,0.518959,0.597082,0.574402,0.566448,0.688415,0.584816
-0.013881,-0.038415,-0.028522,-0.103820,-0.046333,-0.066907,-0.110915,0.014080,0.496348,0.553106,0.521518,0.595121,0.571356,0.566430,0.689301,0.586618
-0.022352,-0.040732,-0.024424,-0.103482,-0.046519,-0.065532,-0.112289,0.014285,0.497044,0.553688,0.521267,0.593228,0.575367,0.567940,0.690663,0.586213
-0.008544,-0.042038,-0.026426,-0.100616,-0.048193,-0.068625,-0.111386,0.013840,0.496581,0.552742,0.521369,0.591719,0.572568,0.568942,0.689679,0.586761
-0.012513,-0.035387,-0.025859,-0.108666,-0.048093,-0.066693,-0.111543,0.013368,0.498867,0.551585,0.520413,0.597047,0.572198,0.569056,0.688395,0.585625
-0.018725,-0.042907,-0.025138,-0.107258,-0.045859,-0.069198,-0.112420,0.013128,0.493329,0.554625,0.521637,0.594730,0.576218,0.569305,0.688050,0.585830
-0.019589,-0.039744,-0.028800,-0.104863,-0.045422,-0.066799,-0.112725,0.014231,0.500007,0.553914,0.520910,0.595710,0.576179,0.568354,0.690966,0.585485
-0.016066,-0.041096,-0.026189,-0.106149,-0.047107,-0.068126,-0.112614,0.013687,0.496918,0.553520,0.521645,0.595000,0.575516,0.569375,0.689520,0.584686
-0.010821,-0.039254,-0.025449,-0.109167,-0.046644,-0.069595,-0.113957,0.013681,0.502241,0.552150,0.522602,0.596137,0.574790,0.571482,0.690373,0.585416
-0.013522,-0.038738,-0.026440,-0.104181,-0.046702,-0.066825,-0.112814,0.012815,0.500973,0.550357,0.522585,0.597488,0.572736,0.571784,0.689165,0.584706
-0.015566,-0.040902,-0.024997,-0.107768,-0.046209,-0.067367,-0.113904,0.014830,0.496525,0.551829,0.522276,0.598891,0.576282,0.570313,0.688592,0.584660
-0.018950,-0.040919,-0.026866,-0.103317,-0.048350,-0.067181,-0.115210,0.014939,0.503510,0.550627,0.520862,0.600641,0.574093,0.568712,0.689340,0.584873
-0.019113,-0.042375,-0.026886,-0.106034,-0.045145,-0.064068,-0.114295,0.012542,0.496666,0.553907,0.520656,0.601633,0.572864,0.567735,0.688977,0.585400
-0.015353,-0.042301,-0.026852,-0.104462,-0.047913,-0.064511,-0.114826,0.013848,0.504882,0.552085,0.520959,0.597795,0.573854,0.568877,0.687215,0.585574
-0.013444,-0.041843,-0.027304,-0.103325,-0.048585,-0.067042,-0.115231,0.014051,0.503872,0.553488,0.522907,0.600088,0.576524,0.569276,0.688961,0.585129
-0.007963,-0.037327,-0.026352,-0.108245,-0.048705,-0.068048,-0.115224,0.013501,0.494222,0.552781,0.522847,0.601496,0.576361,0.570805,0.689212,0.585530
-0.017753,-0.048021,-0.028276,-0.107467,-0.048016,-0.066906,-0.116538,0.013934,0.493378,0.556799,0.521345,0.602256,0.575433,0.569115,0.688999,0.584650
-0.009014,-0.042754,-0.026130,-0.105567,-0.048499,-0.068524,-0.117245,0.015204,0.493012,0.554101,0.521581,0.600830,0.576181,0.570057,0.689083,0.585705
-0.012499,-0.037881,-0.026852,-0.103944,-0.048073,-0.067234,-0.116454,0.014540,0.502264,0.551004,0.520390,0.601401,0.575379,0.569442,0.689594,0.584395
-0.014436,-0.044473,-0.027010,-0.105585,-0.047457,-0.067594,-0.116204,0.015239,0.496138,0.552392,0.521656,0.597224,0.579462,0.571674,0.689887,0.584357
-0.017784,-0.041252,-0.025857,-0.103458,-0.047827,-0.069143,-0.116140,0.014648,0.494133,0.553569,0.521086,0.599132,0.576464,0.570478,0.690156,0.586067
-0.004206,-0.043751,-0.027094,-0.103087,-0.049333,-0.066582,-0.118800,0.013800,0.501538,0.558467,0.522218,0.595325,0.578136,0.569956,0.691388,0.585656
-0.017897,-0.038519,-0.026230,-0.105591,-0.046070,-0.066569,-0.118367,0.015282,0.500737,0.556698,0.521997,0.595351,0.579537,0.570574,0.689875,0.587138
-0.013505,-0.040837,-0.028196,-0.109868,-0.049696,-0.066835,-0.118424,0.015328,0.501130,0.554413,0.522735,0.604244,0.579335,0.570203,0.690323,0.586156
-0.013032,-0.042092,-0.028713,-0.110294,-0.048393,-0.067509,-0.117521,0.014328,0.498409,0.555091,0.522301,0.602572,0.577835,0.569094,0.689776,0.587324
-0.019323,-0.037657,-0.027927,-0.109361,-0.050784,-0.068030,-0.118353,0.013737,0.497739,0.551965,0.523306,0.599046,0.579756,0.569573,0.690003,0.586378
-0.010724,-0.043262,-0.027497,-0.106256,-0.050871,-0.066097,-0.118620,0.013990,0.492207,0.554913,0.523714,0.598167,0.579962,0.567802,0.689127,0.585155
-0.014378,-0.045662,-0.024647,-0.105503,-0.048073,-0.066862,-0.118804,0.013678,0.496031,0.557576,0.522256,0.596178,0.576101,0.568839,0.688375,0.585542
-0.014891,-0.046672,-0.027316,-0.105737,-0.048406,-0.067557,-0.119147,0.013166,0.492795,0.554504,0.523420,0.597030,0.573852,0.569644,0.688837,0.586108
-0.014547,-0.043323,-0.025583,-0.109691,-0.049951,-0.063691,-0.119762,0.013410,0.494462,0.557274,0.523356,0.606706,0.574618,0.569773,0.689222,0.585868
-0.022594,-0.043963,-0.027830,-0.112239,-0.050396,-0.068171,-0.117781,0.014012,0.502438,0.556762,0.524889,0.602013,0.577147,0.571974,0.689129,0.586091
-0.016306,-0.042204,-0.026935,-0.107349,-0.046792,-0.066489,-0.119922,0.013839,0.492522,0.558547,0.522246,0.600740,0.574981,0.570681,0.688133,0.586657
-0.009589,-0.042898,-0.025135,-0.107975,-0.050496,-0.066246,-0.119692,0.014362,0.484004,0.555583,0.522177,0.600564,0.576785,0.569866,0.691017,0.585578
-0.019731,-0.045091,-0.025152,-0.105935,-0.049645,-0.066349,-0.119713,0.014486,0.497529,0.554961,0.522727,0.599657,0.575598,0.571148,0.688677,0.585551
-0.017554,-0.046022,-0.027185,-0.110285,-0.046644,-0.066093,-0.119045,0.013733,0.497378,0.552664,0.523695,0.606690,0.575144,0.571981,0.688771,0.585361
-0.015432,-0.043306,-0.029275,-0.109179,-0.047876,-0.067521,-0.120283,0.014466,0.505228,0.552360,0.522367,0.603437,0.576051,0.572021,0.689826,0.586423
-0.014516,-0.038249,-0.027538,-0.106463,-0.047552,-0.065264,-0.120387,0.015231,0.498292,0.554316,0.523414,0.600749,0.575089,0.572610,0.690090,0.586165
-0.015383,-0.042607,-0.027135,-0.106516,-0.046551,-0.067602,-0.119762,0.014488,0.493354,0.555203,0.523241,0.603160,0.573487,0.572213,0.689393,0.586204
-0.012762,-0.040184,-0.027937,-0.110285,-0.048381,-0.069383,-0.119092,0.014604,0.493687,0.555496,0.523259,0.606536,0.572400,0.575306,0.689293,0.585302
-0.019790,-0.040657,-0.026467,-0.106906,-0.049081,-0.066972,-0.119966,0.014696,0.500741,0.555547,0.522913,0.598000,0.573941,0.572872,0.691142,0.586204
-0.017731,-0.045349,-0.027892,-0.104880,-0.050707,-0.067781,-0.118201,0.015165,0.498975,0.554770,0.522281,0.596529,0.574070,0.574646,0.689390,0.587965
-0.016580,-0.040214,-0.025130,-0.105781,-0.046686,-0.066858,-0.119127,0.014784,0.497384,0.553532,0.523482,0.599040,0.573121,0.574042,0.689812,0.586909
-0.014342,-0.043796,-0.025254,-0.107532,-0.049761,-0.066969,-0.120106,0.016060,0.492259,0.555200,0.522182,0.599656,0.575124,0.570797,0.689817,0.586366
-0.018020,-0.042816,-0.026713,-0.107324,-0.048644,-0.067591,-0.119933,0.015700,0.496298,0.557207,0.522254,0.600370,0.572737,0.574364,0.690056,0.586190
-0.012763,-0.046031,-0.026460,-0.107446,-0.046811,-0.067804,-0.119528,0.015714,0.496292,0.556701,0.522924,0.599827,0.572857,0.573880,0.690476,0.585203
-0.004985,-0.040052,-0.026996,-0.108321,-0.048325,-0.066366,-0.119360,0.015412,0.492906,0.555882,0.522940,0.601920,0.572636,0.573321,0.689459,0.585236
-0.007976,-0.043395,-0.023795,-0.108209,-0.047499,-0.064343,-0.121245,0.016532,0.498922,0.556339,0.522372,0.602220,0.573126,0.570918,0.689034,0.585380
-0.005499,-0.035746,-0.027348,-0.103518,-0.049089,-0.065211,-0.120676,0.015099,0.503585,0.552913,0.522579,0.595878,0.573880,0.570847,0.690887,0.586141
-0.011196,-0.041437,-0.027098,-0.107243,-0.048910,-0.066431,-0.120849,0.015206,0.496439,0.555452,0.522641,0.599122,0.571633,0.576560,0.689632,0.585598
-0.016209,-0.041009,-0.025900,-0.108558,-0.046859,-0.065272,-0.120695,0.014392,0.495709,0.552855,0.524492,0.601646,0.571782,0.575262,0.690035,0.586234
-0.014365,-0.035852,-0.026967,-0.107454,-0.047351,-0.069305,-0.120656,0.015728,0.490720,0.553381,0.524063,0.599437,0.570464,0.574729,0.690204,0.584657
-0.013178,-0.041689,-0.028857,-0.109553,-0.046187,-0.068501,-0.120279,0.015993,0.503550,0.552161,0.526314,0.605302,0.570953,0.577041,0.690152,0.584766
-0.016418,-0.040447,-0.025876,-0.107297,-0.045071,-0.068326,-0.121043,0.015931,0.506955,0.554646,0.523490,0.603697,0.568869,0.575940,0.690936,0.584063
-0.017839,-0.040235,-0.026427,-0.106612,-0.044611,-0.068985,-0.120891,0.016775,0.499314,0.556391,0.523140,0.606285,0.570409,0.575261,0.691220,0.583273
-0.022821,-0.038371,-0.027852,-0.108797,-0.045099,-0.068954,-0.121028,0.015318,0.497074,0.554095,0.522066,0.601488,0.571208,0.573076,0.689700,0.585250
-0.005982,-0.045269,-0.029084,-0.108689,-0.047251,-0.069104,-0.122062,0.016347,0.499169,0.557311,0.524952,0.600101,0.571090,0.574924,0.690858,0.585447
-0.015313,-0.045427,-0.028195,-0.106250,-0.047561,-0.065517,-0.121191,0.015063,0.497078,0.556097,0.523008,0.595999,0.571202,0.574512,0.688631,0.585859
-0.015561,-0.039792,-0.029293,-0.105992,-0.047915,-0.067431,-0.121382,0.016293,0.500832,0.557203,0.524528,0.598317,0.569495,0.577172,0.689686,0.585410
-0.024945,-0.040419,-0.025572,-0.109530,-0.046711,-0.068353,-0.121017,0.015895,0.497689,0.558488,0.523583,0.599994,0.570809,0.578333,0.689343,0.584968
-0.015680,-0.042192,-0.024527,-0.106212,-0.048662,-0.068861,-0.121303,0.015894,0.496195,0.555037,0.523728,0.601411,0.572091,0.578199,0.691052,0.585510
-0.009998,-0.039117,-0.028555,-0.109347,-0.048262,-0.069386,-0.120866,0.016841,0.501716,0.552779,0.522496,0.603055,0.570314,0.580562,0.691269,0.586653
-0.020075,-0.041362,-0.024702,-0.105225,-0.049421,-0.066501,-0.122045,0.015943,0.494406,0.552556,0.520670,0.599246,0.571701,0.575887,0.690641,0.585963
-0.014001,-0.038232,-0.027783,-0.107617,-0.049372,-0.067080,-0.120158,0.016344,0.497893,0.552849,0.523142,0.603578,0.570349,0.576682,0.690529,0.584470
-0.018823,-0.042652,-0.025040,-0.111604,-0.046350,-0.067095,-0.122502,0.017382,0.495796,0.551341,0.524355,0.605388,0.569612,0.576912,0.690435,0.584580
-0.007884,-0.035223,-0.028783,-0.109539,-0.048482,-0.065634,-0.122120,0.015694,0.499655,0.551740,0.523918,0.605231,0.569227,0.577230,0.690133,0.586547
-0.016874,-0.040441,-0.029132,-0.106499,-0.048644,-0.070254,-0.121582,0.016839,0.502115,0.552102,0.524752,0.601546,0.570295,0.577871,0.690479,0.585631
-0.018017,-0.040019,-0.026591,-0.108234,-0.047793,-0.067605,-0.121665,0.016759,0.494258,0.551451,0.524797,0.606351,0.567491,0.577934,0.688838,0.585283
-0.006746,-0.037719,-0.026869,-0.109825,-0.048182,-0.069405,-0.123270,0.016780,0.493972,0.552057,0.524318,0.602043,0.572892,0.576783,0.691268,0.583922
-0.010817,-0.048812,-0.028533,-0.110117,-0.047221,-0.067958,-0.122299,0.016225,0.499467,0.555508,0.525890,0.605840,0.569709,0.577451,0.690786,0.583791
-0.016420,-0.039762,-0.028297,-0.111690,-0.047023,-0.066112,-0.123711,0.015880,0.498890,0.552503,0.526101,0.605460,0.568868,0.578134,0.689869,0.583793
-0.020402,-0.040977,-0.027380,-0.105619,-0.047638,-0.067583,-0.123698,0.016121,0.502434,0.556201,0.524823,0.598267,0.569854,0.577267,0.691110,0.584456
-0.013150,-0.041392,-0.025537,-0.110398,-0.049948,-0.066891,-0.122801,0.017347,0.491644,0.555546,0.524052,0.601566,0.572818,0.576875,0.692268,0.583342
-0.013807,-0.039602,-0.026863,-0.111709,-0.046987,-0.066841,-0.122819,0.015879,0.495553,0.554083,0.524777,0.605616,0.571557,0.575962,0.689278,0.584702
-0.011741,-0.041030,-0.026085,-0.107884,-0.046918,-0.068858,-0.123097,0.016900,0.500727,0.557021,0.524107,0.600715,0.573141,0.576334,0.689052,0.583920
-0.006842,-0.043009,-0.029536,-0.108709,-0.046962,-0.067559,-0.123984,0.017146,0.497258,0.557496,0.526648,0.603961,0.571899,0.576075,0.690656,0.583883
-0.016938,-0.036941,-0.028288,-0.105838,-0.048180,-0.067658,-0.124960,0.016452,0.495900,0.555187,0.525661,0.601779,0.571719,0.577352,0.690248,0.583833
-0.010484,-0.042159,-0.025406,-0.104730,-0.046555,-0.068782,-0.123090,0.017238,0.491584,0.554466,0.524990,0.598305,0.569736,0.577774,0.690619,0.584490
-0.018027,-0.035377,-0.027842,-0.108286,-0.050013,-0.070953,-0.123561,0.017445,0.496081,0.556120,0.524898,0.605718,0.569961,0.583796,0.689633,0.584468
-0.017220,-0.038516,-0.028574,-0.108245,-0.048526,-0.068662,-0.123617,0.017901,0.503028,0.553433,0.526703,0.602571,0.570098,0.579456,0.690672,0.583395
-0.017876,-0.039855,-0.026556,-0.108779,-0.048975,-0.069239,-0.123828,0.015817,0.501612,0.554349,0.526336,0.600715,0.569128,0.580029,0.690629,0.583845
-0.012649,-0.042633,-0.028743,-0.111813,-0.045546,-0.067476,-0.124321,0.016339,0.494447,0.552256,0.526545,0.610524,0.567394,0.579201,0.690431,0.582786
-0.011968,-0.041684,-0.027850,-0.106002,-0.048164,-0.067219,-0.124012,0.016977,0.492641,0.552281,0.525713,0.607954,0.568091,0.579255,0.689456,0.582228
-0.017076,-0.038854,-0.026764,-0.113199,-0.049294,-0.067830,-0.124481,0.017307,0.501460,0.552614,0.525384,0.606823,0.571015,0.579628,0.690423,0.583102
-0.014216,-0.042296,-0.028623,-0.105947,-0.046098,-0.068139,-0.123962,0.016921,0.496660,0.554467,0.524292,0.599941,0.567932,0.577898,0.689830,0.581149
-0.016176,-0.042995,-0.028138,-0.106245,-0.047200,-0.067351,-0.124091,0.016369,0.498135,0.553348,0.524481,0.603569,0.567842,0.578526,0.690147,0.583465
-0.011198,-0.038767,-0.027600,-0.106596,-0.047476,-0.067701,-0.124305,0.017529,0.500038,0.553225,0.527007,0.603057,0.567257,0.578526,0.690125,0.583299
-0.014754,-0.038001,-0.027354,-0.105740,-0.048184,-0.066573,-0.124547,0.017299,0.493560,0.555767,0.524945,0.600956,0.568804,0.580813,0.690650,0.584091
-0.013412,-0.039714,-0.028232,-0.107447,-0.048611,-0.067574,-0.124438,0.016903,0.498478,0.554266,0.525318,0.604799,0.567788,0.582063,0.691104,0.584018
-0.013755,-0.039473,-0.028508,-0.106109,-0.046784,-0.066498,-0.124383,0.016683,0.497312,0.553452,0.525832,0.603098,0.567825,0.580282,0.690254,0.584059
-0.015203,-0.041098,-0.026686,-0.109670,-0.045898,-0.066007,-0.125260,0.016738,0.500232,0.552000,0.527045,0.598324,0.566102,0.579147,0.690737,0.583118
-0.022794,-0.039381,-0.025118,-0.107833,-0.045375,-0.069208,-0.125843,0.017821,0.505179,0.552606,0.525403,0.604256,0.564410,0.584693,0.691345,0.583743
-0.017180,-0.038014,-0.023297,-0.105760,-0.047692,-0.068538,-0.125677,0.016699,0.498350,0.552843,0.524194,0.598875,0.565221,0.582416,0.689699,0.583692
-0.009856,-0.042651,-0.027289,-0.110435,-0.044886,-0.068107,-0.124402,0.017275,0.492187,0.552563,0.523992,0.604935,0.561722,0.583147,0.689234,0.581807
-0.016718,-0.042374,-0.026985,-0.111783,-0.046249,-0.067446,-0.123974,0.015726,0.497032,0.550695,0.524124,0.608144,0.562428,0.581431,0.690245,0.582560
-0.009333,-0.043070,-0.026050,-0.112060,-0.045332,-0.068071,-0.124476,0.016194,0.493187,0.553488,0.524723,0.610777,0.563659,0.585090,0.689536,0.581933
-0.016133,-0.042026,-0.026720,-0.111439,-0.047693,-0.069467,-0.124863,0.016243,0.495064,0.554565,0.523907,0.609822,0.562970,0.582481,0.690456,0.583407
-0.012221,-0.042885,-0.026681,-0.107564,-0.044001,-0.069255,-0.124350,0.016908,0.493507,0.552713,0.523350,0.602865,0.560892,0.583387,0.690098,0.583264
-0.014949,-0.042199,-0.024973,-0.110229,-0.047383,-0.068967,-0.125528,0.017942,0.502678,0.557180,0.522397,0.606530,0.562954,0.582833,0.690406,0.583205
-0.013226,-0.043705,-0.027588,-0.108449,-0.046259,-0.071307,-0.125912,0.017487,0.489783,0.555277,0.523143,0.607423,0.563336,0.582216,0.689742,0.582741
-0.014095,-0.028454,-0.024086,-0.106211,-0.044545,-0.071668,-0.125646,0.017070,0.522729,0.562968,0.528674,0.608621,0.565539,0.583451,0.689509,0.584981
-0.011545,-0.025098,-0.022656,-0.104635,-0.042731,-0.071272,-0.125706,0.016671,0.538923,0.566541,0.532191,0.608899,0.567247,0.584548,0.689351,0.586263
-0.009559,-0.024827,-0.022007,-0.102988,-0.041299,-0.070240,-0.125762,0.016403,0.547226,0.568563,0.535336,0.609033,0.569014,0.585552,0.689145,0.587183
-0.011982,-0.023177,-0.022043,-0.101770,-0.040717,-0.069865,-0.125826,0.016097,0.558003,0.569235,0.537810,0.609053,0.570480,0.586378,0.689132,0.588536
-0.012351,-0.021134,-0.020733,-0.100644,-0.039825,-0.068470,-0.125979,0.016010,0.562253,0.570451,0.539905,0.609144,0.571838,0.587300,0.688976,0.589518
-0.012690,-0.020408,-0.020643,-0.099730,-0.039248,-0.067138,-0.125946,0.015743,0.569865,0.571328,0.542163,0.609236,0.572914,0.588093,0.688936,0.590458
-0.011711,-0.020003,-0.020734,-0.098625,-0.038383,-0.066175,-0.126192,0.015722,0.575970,0.573156,0.544040,0.609236,0.573731,0.588608,0.688882,0.590675
-0.012804,-0.020516,-0.019345,-0.098093,-0.037925,-0.065351,-0.126268,0.015558,0.579509,0.574313,0.545652,0.609297,0.574490,0.589394,0.688856,0.590817
-0.012246,-0.019134,-0.019270,-0.096085,-0.036988,-0.065114,-0.126396,0.015011,0.580510,0.574569,0.546958,0.609119,0.575419,0.589967,0.688824,0.592245
-0.011461,-0.020214,-0.018825,-0.095290,-0.037073,-0.064846,-0.126364,0.015179,0.580127,0.575595,0.548424,0.609107,0.576008,0.590694,0.688725,0.592806
-0.013130,-0.019212,-0.018637,-0.094494,-0.037007,-0.063933,-0.126288,0.015064,0.581833,0.575511,0.549594,0.609007,0.576744,0.591350,0.688701,0.593484
-0.012559,-0.018881,-0.018113,-0.094053,-0.036329,-0.063090,-0.126364,0.015222,0.587425,0.576198,0.550396,0.609048,0.577066,0.591801,0.688775,0.593697
-0.013564,-0.017284,-0.018303,-0.093328,-0.036608,-0.062857,-0.126326,0.015580,0.586851,0.576203,0.551402,0.608966,0.577591,0.592289,0.688818,0.593798
-0.013120,-0.016434,-0.017851,-0.092946,-0.036229,-0.062149,-0.126391,0.015141,0.589072,0.576538,0.552430,0.608910,0.578174,0.592686,0.688819,0.594806
-0.015060,-0.017860,-0.017958,-0.091889,-0.036134,-0.061627,-0.126445,0.015061,0.590163,0.576863,0.553146,0.608869,0.578533,0.593190,0.688848,0.595322
-0.009730,-0.017023,-0.017011,-0.091429,-0.035325,-0.061209,-0.126501,0.014480,0.589665,0.577176,0.554290,0.608774,0.579027,0.593351,0.688888,0.596336
-0.012967,-0.016183,-0.016919,-0.090793,-0.035240,-0.060743,-0.126602,0.014666,0.590393,0.577443,0.555236,0.608631,0.579211,0.593983,0.688897,0.596493
-0.012623,-0.016130,-0.017484,-0.090624,-0.034460,-0.059383,-0.126641,0.014794,0.590443,0.578039,0.556119,0.608689,0.579550,0.594684,0.688881,0.596488
-0.011243,-0.014552,-0.016916,-0.089506,-0.034916,-0.058879,-0.126611,0.014515,0.590417,0.578086,0.556673,0.608649,0.579802,0.594681,0.688885,0.597826
-0.012828,-0.014741,-0.017080,-0.089852,-0.034424,-0.058747,-0.126610,0.015116,0.595357,0.578540,0.557313,0.608669,0.580187,0.594904,0.688953,0.597720
-0.009790,-0.015500,-0.017112,-0.089117,-0.033964,-0.058336,-0.126653,0.014368,0.591435,0.578716,0.557663,0.608593,0.580328,0.594992,0.689045,0.598743
-0.014262,-0.015658,-0.017618,-0.089117,-0.034092,-0.058290,-0.126581,0.014376,0.596606,0.578710,0.558336,0.608575,0.580728,0.595428,0.689116,0.599509
-0.010829,-0.014385,-0.017355,-0.088382,-0.033843,-0.058145,-0.126573,0.014271,0.595903,0.578634,0.558921,0.608734,0.581047,0.595549,0.689164,0.599979
-0.010759,-0.012335,-0.016562,-0.088243,-0.033934,-0.057809,-0.126664,0.013903,0.597527,0.578985,0.559388,0.608823,0.581119,0.595951,0.689225,0.600070
-0.011604,-0.013745,-0.016650,-0.087044,-0.033503,-0.056966,-0.126664,0.014245,0.598814,0.579218,0.559687,0.608770,0.581245,0.596233,0.689082,0.600343
-0.014417,-0.012931,-0.017113,-0.086526,-0.033114,-0.056525,-0.126687,0.013913,0.599972,0.579096,0.559932,0.608910,0.581397,0.596445,0.689223,0.601018
-0.012437,-0.012268,-0.016613,-0.086511,-0.033208,-0.056303,-0.126786,0.013788,0.601148,0.580099,0.559984,0.608965,0.581692,0.596785,0.689209,0.601336
-0.009800,-0.012924,-0.016601,-0.086145,-0.032592,-0.056235,-0.126832,0.013676,0.600348,0.580120,0.560319,0.608753,0.581882,0.596971,0.689261,0.601684
-0.012684,-0.012217,-0.016128,-0.085715,-0.032496,-0.056308,-0.127010,0.013587,0.599030,0.580353,0.560512,0.608564,0.581900,0.597359,0.689271,0.602277
-0.014173,-0.012193,-0.015953,-0.085131,-0.031823,-0.055774,-0.126871,0.013872,0.598692,0.580567,0.560815,0.608498,0.582033,0.597546,0.689371,0.602013
-0.011896,-0.011814,-0.016449,-0.084977,-0.031989,-0.055572,-0.127069,0.014005,0.599258,0.580296,0.561293,0.608480,0.582364,0.597573,0.689312,0.602228
-0.013315,-0.011791,-0.016095,-0.084370,-0.031466,-0.054934,-0.127171,0.013888,0.601471,0.580580,0.561699,0.608662,0.582387,0.597772,0.689291,0.602548
-0.012605,-0.013046,-0.016197,-0.084025,-0.031314,-0.055374,-0.127207,0.014126,0.602761,0.580854,0.561891,0.608680,0.582384,0.597987,0.689297,0.602892
-0.012594,-0.013992,-0.014973,-0.084034,-0.031469,-0.054749,-0.127236,0.014385,0.600258,0.580775,0.562305,0.608673,0.582417,0.598176,0.689378,0.602964
-0.009655,-0.013223,-0.015652,-0.083825,-0.031503,-0.054758,-0.127185,0.013519,0.602212,0.580241,0.562508,0.608755,0.582482,0.598218,0.689398,0.603877
-0.014211,-0.011633,-0.015867,-0.083808,-0.031199,-0.054130,-0.127316,0.014179,0.604363,0.580091,0.562609,0.608651,0.582633,0.598191,0.689427,0.603130
-0.012137,-0.011844,-0.016607,-0.083301,-0.030718,-0.054175,-0.127179,0.013764,0.601833,0.580325,0.562552,0.608617,0.583009,0.598372,0.689435,0.604155
-0.010187,-0.010856,-0.016030,-0.082491,-0.030528,-0.053851,-0.127325,0.013852,0.599349,0.580583,0.562675,0.608747,0.582956,0.598442,0.689542,0.603687
-0.011627,-0.011925,-0.016430,-0.082423,-0.029995,-0.053974,-0.127287,0.013961,0.598275,0.580713,0.562828,0.608773,0.583066,0.598453,0.689528,0.603953
-0.011765,-0.011654,-0.016489,-0.082101,-0.030656,-0.053975,-0.127219,0.013542,0.597090,0.580544,0.563272,0.608621,0.583099,0.598549,0.689554,0.604094
-0.010004,-0.011013,-0.015805,-0.081361,-0.030099,-0.053209,-0.127233,0.013432,0.601523,0.581005,0.563314,0.608906,0.583074,0.598942,0.689509,0.604973
-0.009672,-0.011448,-0.015219,-0.081651,-0.030512,-0.052402,-0.127184,0.013258,0.603740,0.581493,0.563636,0.609023,0.583216,0.599099,0.689546,0.605291
-0.010617,-0.010549,-0.016179,-0.081172,-0.029904,-0.052612,-0.127230,0.013515,0.603136,0.581456,0.564192,0.609065,0.583264,0.599258,0.689549,0.605264
-0.013691,-0.011450,-0.016130,-0.080808,-0.029877,-0.052492,-0.127345,0.013395,0.606503,0.581738,0.564183,0.608967,0.583091,0.599387,0.689595,0.605904
-0.013559,-0.010791,-0.015620,-0.080800,-0.030130,-0.052326,-0.127269,0.013448,0.608090,0.581714,0.564161,0.608928,0.583214,0.599329,0.689616,0.606125
-0.013177,-0.011402,-0.015980,-0.080423,-0.029935,-0.052152,-0.127337,0.013278,0.606524,0.581954,0.564483,0.609007,0.583329,0.599397,0.689691,0.606786
-0.012315,-0.010432,-0.015352,-0.080162,-0.029844,-0.051846,-0.127316,0.013750,0.605248,0.581856,0.564420,0.609107,0.583433,0.599598,0.689716,0.606987
-0.010724,-0.010737,-0.016143,-0.079567,-0.029707,-0.051665,-0.127606,0.014074,0.604034,0.582348,0.564730,0.609276,0.583424,0.599583,0.689789,0.606570
-0.012005,-0.010402,-0.014569,-0.079564,-0.029473,-0.051437,-0.127357,0.013986,0.603958,0.582645,0.564492,0.609222,0.583479,0.599743,0.689858,0.607515
-0.011402,-0.011033,-0.015622,-0.080310,-0.029566,-0.051369,-0.127515,0.013632,0.606960,0.582982,0.564884,0.609249,0.583490,0.599722,0.689857,0.607825
-0.011402,-0.011033,-0.015623,-0.080310,-0.029566,-0.051369,-0.127515,0.013632,0.606960,0.582982,0.564885,0.609249,0.583490,0.599722,0.689857,0.607825
-0.011402,-0.011035,-0.015623,-0.080311,-0.029565,-0.051369,-0.127515,0.013632,0.606960,0.582983,0.564885,0.609249,0.583490,0.599722,0.689857,0.607825
-0.011402,-0.011036,-0.015622,-0.080311,-0.029566,-0.051369,-0.127515,0.013632,0.606960,0.582983,0.564886,0.609249,0.583490,0.599722,0.689857,0.607825
-0.011402,-0.011036,-0.015622,-0.080312,-0.029566,-0.051369,-0.127515,0.013632,0.606960,0.582983,0.564885,0.609249,0.583490,0.599722,0.689857,0.607825
-0.011402,-0.011037,-0.015622,-0.080312,-0.029567,-0.051369,-0.127515,0.013632,0.606960,0.582985,0.564886,0.609249,0.583490,0.599723,0.689857,0.607825
-0.011402,-0.011038,-0.015623,-0.080312,-0.029567,-0.051370,-0.127515,0.013632,0.606960,0.582985,0.564885,0.609249,0.583490,0.599723,0.689857,0.607825
