1_mean,2_mean,3_mean,4_mean,5_mean,6_mean,7_mean,8_mean,1_std,2_std,3_std,4_std,5_std,6_std,7_std,8_std
-0.001628,-0.010360,0.013290,0.000508,-0.001936,-0.013168,-0.027994,-0.006586,0.526905,0.636970,0.638730,0.651571,0.662644,0.666740,0.700626,0.654177
-0.010729,-0.015683,0.008097,-0.009260,-0.004629,-0.023469,-0.031130,-0.005580,0.487474,0.597245,0.603620,0.617630,0.628658,0.643543,0.694545,0.651800
-0.007802,-0.024123,0.005146,-0.025589,-0.005192,-0.028467,-0.033415,-0.005113,0.479141,0.578604,0.584060,0.602736,0.609067,0.627628,0.689731,0.650379
-0.013097,-0.025020,-0.003562,-0.030368,-0.009176,-0.034903,-0.035553,-0.004948,0.490366,0.570608,0.571283,0.600448,0.595607,0.616069,0.686041,0.649165
-0.013217,-0.032499,-0.009687,-0.040765,-0.013046,-0.038145,-0.038536,-0.003224,0.505327,0.565285,0.565753,0.604838,0.585282,0.606189,0.683530,0.644971
-0.012095,-0.034687,-0.013367,-0.050993,-0.015476,-0.043716,-0.043700,-0.001808,0.501836,0.562305,0.564404,0.605210,0.579041,0.599857,0.681860,0.639879
-0.013274,-0.035416,-0.014700,-0.057210,-0.018199,-0.046537,-0.048223,-0.001766,0.502072,0.561952,0.562191,0.600838,0.573759,0.594022,0.681450,0.636331
-0.015617,-0.041003,-0.018303,-0.056994,-0.021126,-0.051458,-0.051826,-0.000639,0.503725,0.561339,0.563471,0.599939,0.571170,0.590087,0.681452,0.631053
-0.011694,-0.041656,-0.021162,-0.064597,-0.021698,-0.054655,-0.054610,-0.000631,0.501487,0.560881,0.562662,0.600360,0.569848,0.587864,0.680872,0.630280
-0.006452,-0.043953,-0.024674,-0.067058,-0.024024,-0.059217,-0.057694,0.000605,0.506867,0.562637,0.562690,0.599754,0.569753,0.586263,0.681121,0.627066
-0.010958,-0.042471,-0.023672,-0.070120,-0.024864,-0.063252,-0.060694,0.001781,0.514029,0.566042,0.563082,0.597355,0.569919,0.584839,0.683471,0.622764
-0.010064,-0.042078,-0.024222,-0.075082,-0.026702,-0.064903,-0.062514,0.001971,0.513874,0.565454,0.562147,0.597423,0.571249,0.584939,0.682999,0.620544
-0.016103,-0.043443,-0.026862,-0.071755,-0.029818,-0.069363,-0.065365,0.004254,0.509581,0.563744,0.562226,0.599986,0.572167,0.584598,0.682536,0.618128
-0.010554,-0.043821,-0.027834,-0.079865,-0.031409,-0.070729,-0.065401,0.003346,0.510110,0.568601,0.561573,0.603942,0.573043,0.584549,0.681610,0.617209
-0.018512,-0.044264,-0.028609,-0.083271,-0.032107,-0.071143,-0.066954,0.004315,0.513692,0.570088,0.561410,0.609189,0.574332,0.585556,0.681261,0.616638
-0.014216,-0.048448,-0.029260,-0.085795,-0.034718,-0.074470,-0.069153,0.005176,0.516421,0.569354,0.559597,0.612545,0.575417,0.585945,0.682841,0.613447
-0.011658,-0.051356,-0.032985,-0.086656,-0.035743,-0.075751,-0.068803,0.005366,0.513471,0.572700,0.559925,0.617535,0.575370,0.585960,0.682929,0.612429
-0.010494,-0.049122,-0.030868,-0.090708,-0.035274,-0.075226,-0.071231,0.005408,0.514123,0.574819,0.560520,0.620178,0.575426,0.587163,0.682257,0.610527
-0.006250,-0.048815,-0.031577,-0.090338,-0.037408,-0.077936,-0.071621,0.006273,0.520300,0.577747,0.559707,0.617176,0.576253,0.588384,0.681971,0.609932
-0.010766,-0.046743,-0.031585,-0.093239,-0.035571,-0.078647,-0.072939,0.007158,0.516305,0.578205,0.559160,0.618773,0.575891,0.590037,0.683001,0.608353
-0.011430,-0.049644,-0.031324,-0.094480,-0.037705,-0.080391,-0.074502,0.007512,0.524401,0.580184,0.559312,0.622716,0.575967,0.590471,0.682809,0.608770
-0.014079,-0.050182,-0.031309,-0.091969,-0.038250,-0.080799,-0.074398,0.007377,0.517835,0.579116,0.559512,0.619380,0.576253,0.590014,0.682307,0.606081
-0.011379,-0.050677,-0.030237,-0.093771,-0.039630,-0.081106,-0.075747,0.006458,0.523398,0.580795,0.559127,0.618003,0.575446,0.590438,0.683082,0.604061
-0.009380,-0.049777,-0.033054,-0.096161,-0.038489,-0.081496,-0.076212,0.006894,0.514931,0.578945,0.558281,0.616418,0.575917,0.591427,0.684429,0.602317
-0.004706,-0.051987,-0.032745,-0.094917,-0.038615,-0.081040,-0.078028,0.007462,0.510990,0.580036,0.557716,0.617630,0.576201,0.591334,0.685206,0.601874
-0.010911,-0.048288,-0.032700,-0.094241,-0.038890,-0.081069,-0.078567,0.007859,0.508541,0.577885,0.558360,0.613943,0.575979,0.591375,0.683462,0.602795
-0.007047,-0.053454,-0.030154,-0.093062,-0.039410,-0.082172,-0.078627,0.008426,0.516105,0.579513,0.558134,0.612135,0.576854,0.592778,0.683885,0.603063
-0.013243,-0.047278,-0.032663,-0.098976,-0.039641,-0.081463,-0.079675,0.008674,0.518010,0.582399,0.558750,0.613484,0.578248,0.594068,0.684120,0.602308
-0.012243,-0.049512,-0.030083,-0.093890,-0.039331,-0.081756,-0.081195,0.008210,0.516798,0.583787,0.558929,0.609909,0.578000,0.592743,0.685918,0.602092
-0.009397,-0.050822,-0.030327,-0.094057,-0.040211,-0.081300,-0.081572,0.008274,0.519864,0.582646,0.557967,0.608623,0.577043,0.595023,0.684656,0.601736
-0.008015,-0.050620,-0.031599,-0.094619,-0.040192,-0.080093,-0.082350,0.009888,0.522012,0.582213,0.558828,0.608274,0.578041,0.594266,0.685503,0.599219
-0.012816,-0.050529,-0.032797,-0.094667,-0.042057,-0.081652,-0.082492,0.009582,0.509825,0.580584,0.558231,0.611031,0.578337,0.594457,0.685439,0.600084
-0.011012,-0.050342,-0.032808,-0.091300,-0.039577,-0.084031,-0.082784,0.009269,0.519786,0.582409,0.558218,0.611019,0.578852,0.595061,0.685801,0.599716
-0.009225,-0.043047,-0.030931,-0.097331,-0.042548,-0.078798,-0.083982,0.008925,0.524183,0.584230,0.558703,0.613314,0.579856,0.594150,0.684289,0.597784
-0.014821,-0.052868,-0.030231,-0.094844,-0.042397,-0.079975,-0.083866,0.010504,0.512408,0.582595,0.556841,0.607925,0.580938,0.593594,0.684594,0.596262
-0.014851,-0.047148,-0.030324,-0.094585,-0.042863,-0.080835,-0.083670,0.009812,0.525216,0.583923,0.557199,0.605535,0.582740,0.594393,0.683869,0.596074
-0.008616,-0.050195,-0.030967,-0.095727,-0.041710,-0.080312,-0.084053,0.010396,0.524838,0.582892,0.558108,0.606760,0.583227,0.594379,0.682307,0.595406
-0.010233,-0.045098,-0.031048,-0.098943,-0.042340,-0.080849,-0.085716,0.008966,0.528278,0.584174,0.559288,0.606948,0.583866,0.595946,0.683963,0.596153
-0.016862,-0.042951,-0.031540,-0.094084,-0.043914,-0.081411,-0.084934,0.009706,0.523038,0.584094,0.558177,0.603545,0.584633,0.595224,0.684378,0.595991
-0.014452,-0.050604,-0.029655,-0.094503,-0.044243,-0.082208,-0.085547,0.010011,0.510269,0.586216,0.555994,0.602807,0.584136,0.596118,0.686813,0.597130
-0.013803,-0.036715,-0.029879,-0.090373,-0.041797,-0.082546,-0.085494,0.010074,0.551030,0.594482,0.561393,0.606639,0.586504,0.598077,0.686612,0.598055
-0.013413,-0.033274,-0.029440,-0.089704,-0.040564,-0.081779,-0.085476,0.009614,0.566814,0.597171,0.565190,0.608607,0.588090,0.599811,0.686481,0.600302
-0.012809,-0.032649,-0.028057,-0.088991,-0.039400,-0.080668,-0.085448,0.010144,0.580327,0.599107,0.568267,0.610162,0.589495,0.601198,0.686292,0.600434
-0.013267,-0.030863,-0.028352,-0.087074,-0.037800,-0.080056,-0.085713,0.010642,0.588319,0.601174,0.570778,0.611516,0.590908,0.602398,0.686162,0.601461
-0.005445,-0.030256,-0.028142,-0.086992,-0.037255,-0.079300,-0.085696,0.009825,0.597625,0.602139,0.573060,0.612487,0.591957,0.603508,0.686072,0.602678
-0.015344,-0.029671,-0.028073,-0.086130,-0.036638,-0.079121,-0.085905,0.009642,0.604081,0.603321,0.574744,0.613393,0.593014,0.604409,0.686007,0.603529
-0.014746,-0.028969,-0.027850,-0.085670,-0.036141,-0.078550,-0.085804,0.009819,0.607657,0.604278,0.576243,0.614411,0.593822,0.605538,0.685945,0.604609
-0.015131,-0.029209,-0.027605,-0.083776,-0.035810,-0.077914,-0.085925,0.009620,0.608656,0.604724,0.577849,0.615490,0.594576,0.606251,0.685925,0.605156
-0.012341,-0.028172,-0.027852,-0.083984,-0.035552,-0.077385,-0.085880,0.009078,0.613602,0.605569,0.579665,0.616096,0.595257,0.606976,0.685874,0.606344
-0.012881,-0.028801,-0.027229,-0.083226,-0.035165,-0.076501,-0.085875,0.009028,0.618995,0.606113,0.581203,0.616630,0.595906,0.607635,0.685821,0.607075
-0.013605,-0.028268,-0.027773,-0.082911,-0.035090,-0.076284,-0.085868,0.008660,0.617255,0.606353,0.582055,0.617179,0.596311,0.608333,0.685845,0.607705
-0.014767,-0.027167,-0.027437,-0.082691,-0.034790,-0.075402,-0.085955,0.008802,0.617318,0.606846,0.583298,0.617741,0.596813,0.608983,0.685848,0.609103
-0.014094,-0.027607,-0.027478,-0.081876,-0.034231,-0.075089,-0.086117,0.008716,0.618256,0.607178,0.584196,0.618323,0.597535,0.609521,0.685870,0.609091
-0.013928,-0.026521,-0.026799,-0.080890,-0.034414,-0.074875,-0.086183,0.008484,0.620888,0.607674,0.584948,0.618695,0.598183,0.610029,0.685816,0.610087
-0.016330,-0.025929,-0.026719,-0.080814,-0.034007,-0.073992,-0.086165,0.009070,0.621998,0.608004,0.585801,0.619150,0.598613,0.610364,0.685748,0.610566
-0.012357,-0.025228,-0.027019,-0.080443,-0.033969,-0.073921,-0.086215,0.009011,0.622629,0.608065,0.586682,0.619415,0.599173,0.610733,0.685751,0.611078
-0.017497,-0.025209,-0.027136,-0.079976,-0.033657,-0.073646,-0.086249,0.009308,0.626101,0.608490,0.587220,0.619834,0.599615,0.611130,0.685800,0.611564
-0.015976,-0.025091,-0.026392,-0.079393,-0.032959,-0.073173,-0.086327,0.008839,0.627252,0.608683,0.587989,0.620296,0.600326,0.611669,0.685839,0.612332
-0.016443,-0.024567,-0.026659,-0.078259,-0.032974,-0.072455,-0.086416,0.008899,0.632021,0.608618,0.588397,0.620668,0.600751,0.612122,0.685816,0.613473
-0.013498,-0.024380,-0.026376,-0.078815,-0.032617,-0.071865,-0.086423,0.008501,0.629660,0.608992,0.589044,0.620892,0.601076,0.612418,0.685811,0.613785
-0.013891,-0.023466,-0.026632,-0.078791,-0.032475,-0.071386,-0.086401,0.008541,0.630092,0.609362,0.589672,0.621274,0.601691,0.612740,0.685814,0.614485
-0.011253,-0.024214,-0.026235,-0.079432,-0.032369,-0.071305,-0.086337,0.008476,0.632329,0.609778,0.590088,0.621601,0.602188,0.613130,0.685856,0.615187
-0.015929,-0.024294,-0.026624,-0.078239,-0.032035,-0.071166,-0.086573,0.008528,0.635464,0.610344,0.590576,0.621943,0.602567,0.613338,0.685901,0.615351
-0.015981,-0.023923,-0.026375,-0.076872,-0.031184,-0.070453,-0.086609,0.008486,0.634557,0.610763,0.590564,0.622498,0.602913,0.613810,0.685918,0.616339
-0.014059,-0.022898,-0.025813,-0.077372,-0.031339,-0.070742,-0.086652,0.008903,0.636826,0.610734,0.591015,0.622764,0.603401,0.613915,0.685926,0.616071
-0.013637,-0.023234,-0.025238,-0.076755,-0.031051,-0.070548,-0.086561,0.008619,0.634993,0.610413,0.591281,0.622960,0.603721,0.614211,0.685928,0.617076
-0.015176,-0.023132,-0.024973,-0.076945,-0.030399,-0.070477,-0.086668,0.008746,0.633853,0.610671,0.591767,0.623094,0.604266,0.614396,0.685991,0.617113
-0.013746,-0.021232,-0.024837,-0.076322,-0.030994,-0.070047,-0.086600,0.008386,0.632849,0.610972,0.591956,0.623380,0.604823,0.614519,0.685968,0.617718
-0.017064,-0.021669,-0.024782,-0.075502,-0.030535,-0.069334,-0.086720,0.009011,0.635409,0.610844,0.592315,0.623581,0.605039,0.614672,0.685966,0.617820
-0.014894,-0.021377,-0.024871,-0.076020,-0.030793,-0.069023,-0.086850,0.008969,0.639448,0.611040,0.592809,0.623687,0.605598,0.614946,0.686016,0.618307
-0.016650,-0.020971,-0.024722,-0.076067,-0.030288,-0.068874,-0.086764,0.009518,0.635900,0.611134,0.593286,0.623719,0.605987,0.615147,0.686055,0.618271
-0.012637,-0.020742,-0.024655,-0.075737,-0.030486,-0.068605,-0.086737,0.009056,0.636400,0.611106,0.593991,0.624088,0.606383,0.615324,0.686044,0.618900
-0.013741,-0.020568,-0.024173,-0.076191,-0.030658,-0.068294,-0.086734,0.008258,0.634461,0.611170,0.594359,0.624367,0.606660,0.615636,0.686120,0.619921
-0.018857,-0.021329,-0.024976,-0.075449,-0.030347,-0.067801,-0.086801,0.008577,0.636007,0.611566,0.594445,0.624375,0.607081,0.615838,0.686239,0.620162
-0.015013,-0.021160,-0.025222,-0.075348,-0.030606,-0.067176,-0.086728,0.008353,0.635539,0.611650,0.594784,0.624524,0.607483,0.616068,0.686197,0.620401
-0.016734,-0.021559,-0.024926,-0.074560,-0.030359,-0.067645,-0.086734,0.008162,0.639827,0.611731,0.595134,0.624971,0.607859,0.616275,0.686278,0.620728
-0.012146,-0.021876,-0.025016,-0.075131,-0.030190,-0.067206,-0.086795,0.007786,0.641589,0.611962,0.595334,0.625120,0.608015,0.616499,0.686266,0.620874
-0.013569,-0.020885,-0.024450,-0.074505,-0.030278,-0.067139,-0.086829,0.008224,0.638255,0.611731,0.595575,0.625200,0.608388,0.616875,0.686327,0.621674
-0.013299,-0.020429,-0.024466,-0.074731,-0.029863,-0.066771,-0.086701,0.008025,0.638104,0.611684,0.595745,0.625359,0.608741,0.616845,0.686394,0.621889
-0.015186,-0.021151,-0.024496,-0.074721,-0.030461,-0.066931,-0.086654,0.008326,0.637674,0.611717,0.596148,0.625445,0.609004,0.617056,0.686358,0.621419
-0.015186,-0.021151,-0.024495,-0.074721,-0.030461,-0.066931,-0.086654,0.008326,0.637674,0.611717,0.596148,0.625446,0.609004,0.617056,0.686358,0.621419
-0.015186,-0.021150,-0.024495,-0.074721,-0.030460,-0.066931,-0.086654,0.008326,0.637674,0.611718,0.596148,0.625447,0.609004,0.617056,0.686358,0.621419
-0.015186,-0.021149,-0.024495,-0.074721,-0.030461,-0.066931,-0.086654,0.008319,0.637674,0.611716,0.596147,0.625447,0.609004,0.617056,0.686358,0.621415
-0.015186,-0.021151,-0.024496,-0.074721,-0.030461,-0.066931,-0.086654,0.008319,0.637674,0.611715,0.596148,0.625446,0.609005,0.617056,0.686357,0.621415
-0.015186,-0.021150,-0.024496,-0.074721,-0.030461,-0.066931,-0.086654,0.008319,0.637674,0.611715,0.596149,0.625446,0.609005,0.617056,0.686357,0.621415
-0.015186,-0.021150,-0.024496,-0.074722,-0.030461,-0.066932,-0.086654,0.008319,0.637674,0.611716,0.596150,0.625446,0.609004,0.617056,0.686357,0.621415
-0.015186,-0.021151,-0.024495,-0.074722,-0.030461,-0.066932,-0.086654,0.008319,0.637674,0.611716,0.596149,0.625446,0.609004,0.617056,0.686357,0.621415
-0.015186,-0.021152,-0.024496,-0.074722,-0.030461,-0.066932,-0.086654,0.008319,0.637674,0.611715,0.596150,0.625446,0.609004,0.617056,0.686356,0.621415
-0.015206,-0.021152,-0.024495,-0.074722,-0.030461,-0.066932,-0.086654,0.008319,0.637684,0.611715,0.596149,0.625447,0.609004,0.617056,0.686356,0.621415
-0.015206,-0.021152,-0.024495,-0.074722,-0.030461,-0.066932,-0.086654,0.008318,0.637684,0.611715,0.596149,0.625447,0.609004,0.617056,0.686356,0.621429
-0.015206,-0.021153,-0.024496,-0.074722,-0.030461,-0.066932,-0.086654,0.008318,0.637684,0.611715,0.596149,0.625447,0.609004,0.617056,0.686356,0.621429
-0.015206,-0.021151,-0.024497,-0.074722,-0.030462,-0.066932,-0.086653,0.008318,0.637684,0.611714,0.596149,0.625448,0.609004,0.617056,0.686356,0.621429
-0.015206,-0.021152,-0.024498,-0.074721,-0.030462,-0.066932,-0.086654,0.008318,0.637684,0.611713,0.596148,0.625448,0.609004,0.617057,0.686356,0.621429
-0.015189,-0.021153,-0.024499,-0.074722,-0.030462,-0.066932,-0.086654,0.008318,0.637699,0.611712,0.596149,0.625449,0.609004,0.617056,0.686355,0.621429
-0.015189,-0.021154,-0.024500,-0.074721,-0.030462,-0.066932,-0.086654,0.008318,0.637699,0.611711,0.596150,0.625448,0.609004,0.617056,0.686355,0.621429
-0.015189,-0.021154,-0.024500,-0.074722,-0.030462,-0.066933,-0.086654,0.008318,0.637699,0.611712,0.596152,0.625449,0.609004,0.617056,0.686355,0.621429
-0.015189,-0.021154,-0.024501,-0.074722,-0.030462,-0.066933,-0.086654,0.008318,0.637699,0.611713,0.596152,0.625450,0.609005,0.617056,0.686355,0.621429
-0.015189,-0.021155,-0.024502,-0.074722,-0.030463,-0.066933,-0.086654,0.008324,0.637699,0.611712,0.596152,0.625449,0.609005,0.617057,0.686355,0.621433
-0.015189,-0.021155,-0.024501,-0.074723,-0.030463,-0.066933,-0.086654,0.008324,0.637699,0.611712,0.596152,0.625449,0.609004,0.617057,0.686354,0.621433
-0.015189,-0.021155,-0.024501,-0.074722,-0.030463,-0.066934,-0.086654,0.008324,0.637699,0.611713,0.596152,0.625449,0.609005,0.617057,0.686354,0.621433
